9996 16
<BOS> -0.030005205 0.043677557 -0.005877625 -0.005445443 0.0005409606 -0.002999626 0.044075582 -0.027923167 0.035613623 -0.0018030889 0.005910538 0.0076634064 -0.0024097338 0.027957749 -0.024994874 0.035193454
<UNK> -0.0087438505 0.018928578 0.0040024077 0.012158063 0.01254272 0.0025199146 -0.010656078 0.01252996 -0.0014258709 0.0021279594 0.003280869 -0.0030226859 -0.02766435 0.0060285158 -0.006665472 -0.009652184
<UNUSED> 0.0042378083 -0.031274356 -0.04993037 -0.04725175 -0.018861605 -0.0065772757 0.036722373 0.0289273 0.043783855 -0.012064539 0.010465991 0.021221105 -0.031973384 -0.045992613 -0.012573551 -0.0089216605
영화 0.011601717 0.0029495594 0.005585248 -0.0037074967 -0.011932092 0.005767856 0.007790084 -0.023784906 -0.000948462 0.004616001 0.0024200354 -0.011081544 0.008513143 -0.025053084 0.026958684 0.0009926321
다 -0.003824547 0.016531127 0.012422284 0.0148691265 -0.013929169 -0.008858876 0.021738676 -0.042003673 -0.009188449 0.007123063 0.009177532 -0.022757154 0.029236946 -0.017686658 0.04548235 0.00680903
고 0.013042713 0.025047904 0.022708965 0.010585135 -0.007326025 -0.0025530416 0.006359768 -0.039561395 -0.006747627 0.012084781 -0.0066348845 -0.0063968673 0.011506321 -0.022740154 0.03384887 -0.018430682
하 0.016802192 -0.0046479977 0.012620588 0.002836363 -0.014390056 0.003457079 0.0017496397 -0.031969186 0.009346573 0.00371748 -0.026455304 -0.011572633 0.033230428 -0.0019049281 0.011798366 -0.038777094
을 0.0015670697 -0.0054557514 -0.0058137975 -0.006066264 -0.0145216705 0.030718964 0.0036697786 0.01584677 0.012726968 -0.011072752 -0.026875172 0.005638958 -0.014113241 -0.0013707378 0.007359726 0.012330173
보 0.010187588 0.005175496 -0.017472748 0.002180102 0.03357977 0.035552613 0.0032366281 0.001284953 0.0042941323 -0.009152183 -0.014213252 0.027682565 -0.0041322047 0.014603824 0.0014076913 -0.012600639
게 -0.006629102 -0.01698794 -0.0064980537 0.013421371 0.028945003 -0.023627637 -0.007447724 0.0022091777 0.00097653427 -0.011130227 -0.019997228 -0.020145385 0.0011871706 -0.006733314 0.027666166 -0.032609746
지 0.01365075 0.0067549367 -0.002650229 -0.029231548 -0.009264657 0.0030851455 0.019076632 0.018120391 0.0054658465 -0.023883022 0.007966991 -0.0035832818 0.0070294733 -0.03120724 -0.009981778 0.04145253
있 0.012152747 -0.0031121783 0.014464513 0.018131228 0.0119520575 -0.011527965 -0.015108633 -0.02877287 -0.011137731 0.017520718 -0.021107271 -0.016286721 0.026645364 0.01495996 -0.0021757334 0.012421385
없 0.008011852 -0.007578538 -0.025548894 0.0027019992 -0.0011128755 0.007949298 0.0027629372 -0.016405948 0.015350368 7.3583506e-05 -0.015853308 0.00753404 0.012207211 -0.013291764 0.030786324 -0.014879666
좋 -0.06536319 0.00042163001 0.03625926 0.042099107 0.006480999 -0.036445033 0.002340426 -0.0479045 -0.02422427 -0.009252372 -0.006976735 -0.038944744 0.016185474 -0.008220774 0.0038011207 -0.01340061
나 -0.022933187 -0.03554384 -0.019574555 -0.040278103 0.011724367 0.0054724263 -0.003327884 0.026334701 0.026008032 -0.039688952 -0.017202822 0.018705375 -0.074029244 0.029469905 -0.045563985 -0.00014498402
었 -0.03539273 -0.04110222 0.056596544 0.032156702 0.022740914 -0.011603564 -0.017573917 -0.015708527 -0.022736205 0.015895983 -0.015915127 -0.01468129 0.010185607 0.03322751 0.010445047 -0.05419924
만 0.053618893 0.038249128 -0.096640944 -0.082951136 -0.036612038 0.09214852 0.038377207 0.10577869 0.08077005 -0.05990759 0.06740786 0.08638622 -0.073286265 -0.030834625 -0.09916359 0.04941154
는데 0.030463986 0.005801558 -0.050390225 -0.01859598 -0.025388075 0.034227442 0.013510158 0.037193645 0.04605208 -0.01932887 0.051010843 0.028689647 -0.06487544 -0.006202257 -0.03114466 0.02027533
너무 -0.082855575 -0.08258414 0.071719065 0.037308704 0.03405566 -0.08633425 -0.015479408 -0.08455571 -0.066886835 0.04196215 -0.083716236 -0.09859654 0.06833623 0.0030523222 0.032734174 -0.096503064
봤 -0.016331054 -0.020161582 -0.0013508596 -0.016695876 0.0025708461 0.0018140267 0.005458151 -0.018352097 -0.010992261 -0.01188708 0.0070291674 0.031662747 -0.005629763 0.0029967157 0.008075319 0.023759171
적 0.0139274625 -0.01516213 0.023689877 0.030670498 0.018673658 -0.0067621833 -0.02202377 0.007517345 -0.0004991128 0.020089572 -0.008030514 0.02544674 0.05037199 0.014582977 0.031038417 0.0031206969
안 0.05830897 0.06669705 -0.026802763 0.007415415 -0.008185649 0.030748704 0.032271463 0.014385656 0.008217041 -0.014651034 0.05093377 0.0077928547 -0.05236057 0.0072298837 0.0115267 0.046594236
정말 -0.004138834 -0.07026611 -0.016496517 -0.0087739965 0.040131353 -0.009498513 -0.055725474 0.06496472 0.024078598 0.0041276654 -0.07060184 0.04121339 0.0006056029 0.027978044 -0.03633027 -0.043005478
로 0.04023074 -0.08018281 0.05446761 -0.07230493 -0.037896026 -0.044716213 0.066710874 0.020190956 0.0017879156 -0.02605078 -0.05989012 -0.008227276 0.079022534 -0.10134475 -0.026477214 -0.014527285
음 0.0090209935 -0.06473482 0.032424185 0.0008875853 -0.008627224 -0.048782725 0.0123354355 -0.030063985 -0.007178758 -0.009079289 -0.03037083 0.012810713 0.057831045 -0.058731023 0.021441199 -0.03937949
것 0.018005932 -0.005602051 0.005791119 0.009671871 0.029454982 0.014142589 0.009055666 -0.018558843 -0.029303415 0.015292175 -0.019326802 0.0006824883 0.012717076 0.039138667 0.02759995 -0.035090994
네요 0.06434284 0.15210892 -0.11041678 -0.028636444 -0.014456414 0.10789321 -0.027911583 0.087345846 0.09356804 -0.02405016 0.08504563 0.10856403 -0.14553596 0.018367302 -0.053960405 0.0786054
아 -0.0002549558 -0.09121682 0.06473257 -0.018258836 -0.018741725 -0.020065973 -0.0058916574 -0.026108345 0.027237058 0.013191726 -0.09249716 -0.027202386 0.10364575 -0.041876886 0.013932387 -0.041329794
재밌 0.018842142 0.01985723 -0.016905608 -0.047718663 -0.026925996 -0.017910039 -0.0107469475 -0.014295228 0.020890757 -0.011812354 0.026074985 0.003845352 -0.0016694013 -0.027873468 0.00902146 -0.015858812
어 0.009466966 0.040768087 0.026293602 0.028933268 -0.023677317 -0.024216147 0.034073863 -0.061489835 -0.037968654 0.019130751 0.028835056 -0.045887787 0.04025178 -0.029975379 0.040874276 0.026113674
지만 0.011331254 -0.034413822 0.002239196 0.009298637 0.010021154 0.026981266 0.020106338 0.00079365016 0.01932115 0.008943795 -0.0073768497 -0.0006625695 0.042389277 0.021657817 -0.0064898985 0.0070642554
같 -0.021839444 -0.013983842 -0.016567072 0.020071376 0.006997478 -0.03009579 -0.0429365 -0.004859884 0.014900223 -0.01956785 -0.0026668957 0.0035928385 0.01125233 0.0046356446 0.011630644 -0.0045045572
점 -0.0067007737 0.03143478 0.029634038 0.055074565 -0.03683621 -0.04434598 0.04683276 -0.07959521 -0.048461303 0.019220509 0.010491968 -0.06373946 0.008406722 -0.0051290933 0.049819022 0.0037129207
진짜 -0.10406387 -0.078741156 0.11555192 0.12605877 0.16340142 -0.15824685 -0.10913294 -0.11728661 -0.11866541 0.12220152 -0.108647905 -0.118017 0.11100615 0.11121286 0.116208375 -0.14460169
에서 0.026545998 0.016817644 0.016257018 -0.0063997405 0.01974418 0.006197918 0.0028418486 8.676949e-05 -0.023267422 0.009856997 -0.008795237 -0.0019200968 0.022468358 0.008004 0.037326347 -0.009354916
했 -0.013204847 -0.010963933 0.0040238155 0.00048177387 -0.014431579 -0.0027356541 0.005805032 0.014923828 0.0021142182 0.0051863478 0.007174287 0.006411998 0.017615175 -0.014068255 0.00527879 -0.016487626
기 0.0540239 0.12543437 0.040951 0.051429078 -0.021537207 0.018495562 0.0246877 -0.046598073 -0.017866997 0.012774604 0.101667 0.014774187 0.0041901125 -0.028064921 0.045772918 0.03268624
네 -0.07139834 -0.12538132 -0.035471626 -0.052579172 0.0658912 0.031098949 -0.07950427 0.14905097 0.011123344 -0.028503196 -0.08499039 0.07617344 -0.025110804 0.0689326 -0.10260316 -0.048773114
않 0.02336199 -0.08979408 0.0109658735 -0.022994647 0.0012572298 -0.03164167 -0.023393437 -0.01943036 0.008715513 0.004393136 -0.075409964 0.013020356 0.084906265 -0.01080457 0.031594865 -0.00391988
거 1.5818929e-05 -0.0017600897 -0.01017807 -0.013297074 -0.017502273 -0.012735971 -0.012470903 -0.0004747499 0.01632884 -0.007368808 -0.0054075443 0.009485664 0.011373137 -0.012795107 -0.0015983151 -0.0041019483
았 -0.04762832 -0.020832615 0.002918369 -0.010720445 0.038484015 0.0038997664 -0.017978586 -0.018311398 -0.0014646458 -0.017905293 0.0176555 0.0042317007 0.010681467 0.026855024 -0.0074033174 0.021488408
수 0.019956546 0.0013404215 -0.029555853 0.013545668 -0.00064277276 0.04492553 0.0050151045 -0.031579025 -0.03269937 -0.037923828 0.043462865 0.020041294 0.003290006 -0.041397125 0.0031513376 0.019770417
되 0.033672296 0.03067079 -0.007933102 0.0037003332 0.0007144534 0.061469078 -0.01781637 0.0018862393 0.0085048275 -0.038772203 0.02350464 -0.0023158577 -0.013866957 -0.01491326 -0.0030412034 0.026473612
면 0.012984841 -0.040296234 -0.115804404 -0.053492285 0.04068556 0.061933767 -0.029334962 0.14857833 0.040611234 -0.046520445 -0.020743044 0.06074733 -0.12270312 0.053869143 -0.07915392 -0.02017885
ㅋㅋ -0.016443925 0.0036117216 -0.004153515 0.0024886332 -0.020112904 -0.012086732 0.035996255 0.0184204 -0.012412253 -0.0028186648 -0.013572698 -0.015490258 -0.035473913 -0.017852012 -0.024806436 -0.007016587
인 -0.015719714 -0.011186508 0.037827678 -0.033872273 0.016534451 0.0008969706 0.00039019258 0.018229406 0.013142986 -0.015839837 -0.031553134 0.014018734 0.00885338 -0.015711974 -0.014383334 -0.023357386
말 -0.0066932854 0.00967279 0.0016801212 0.07094348 0.03559502 -0.0007748756 -0.048577566 0.0033640673 -0.034163203 0.076511405 0.014017263 -0.032446206 -0.046403956 0.04760373 0.042896777 -0.031872693
연기 0.008274593 -0.012473932 0.01620253 0.002308759 0.0025441737 -0.026320105 0.008262688 -0.040161762 -0.008921637 0.017169781 -0.05494559 -0.008858829 0.044955127 0.008289028 0.03343415 -0.025333852
주 -0.019047435 0.023507154 -0.01226414 -0.0036103225 0.023514383 0.060373154 -0.015591767 0.031906504 -0.0047122487 0.0033237925 0.028050885 0.018150419 -0.06850457 0.025540076 0.015879901 0.01321654
최고 -0.020268427 0.0030981463 0.024071971 0.024421545 -0.00044165098 -0.01818562 0.035652597 -0.013658233 -0.057550527 -0.012237753 0.00407678 -0.018853124 0.02222086 0.015057056 -0.01865887 -0.0043199747
내 0.001497533 -0.0072418707 0.016360864 -0.0008273183 -0.010695183 0.020742733 -0.013477695 -0.0034857828 -0.025589941 -0.0060148337 0.015157578 0.012854085 -0.021584617 0.025415657 0.0084116785 -0.0010238391
평점 -0.022380574 -0.023693733 0.07615856 -0.009681586 -0.008803539 -0.059534952 0.018524097 -0.0536825 -0.037669137 0.012386787 -0.03632182 -0.05371563 0.04715608 -0.047504492 0.027221626 -0.03268686
이런 0.015025009 0.009605144 0.00907282 0.019254424 0.02017499 0.018758066 0.022755085 -0.021353016 0.018729093 0.026317477 -0.023401454 -0.024577187 0.007587311 -0.01514752 0.0008284071 -0.01398838
던 -0.007131947 -0.019914271 0.028982507 0.0015604583 0.021397028 -0.038988058 0.004902238 -0.00443351 -0.027134128 -0.0197914 -0.010261673 -0.047572076 0.016458314 -0.020576688 -0.015278145 -0.012811763
어요 -0.024375107 -0.007405476 0.012202968 0.0063291187 -0.027094128 -0.006266647 0.008644761 0.049672477 0.0686391 -0.013197935 -0.01605546 -0.010145183 -0.016819244 -0.007356809 0.0024206291 0.021963784
할 -0.15424275 -0.21211734 0.16112304 0.15427877 0.20189127 -0.16677406 -0.1642678 -0.13172576 -0.14366624 0.13970762 -0.1872087 -0.15090166 0.118760355 0.19560677 0.11790789 -0.15873703
왜 -0.011894338 0.018460652 0.029094981 0.017460704 -0.030371774 -0.028295122 0.03933763 -0.04448734 -0.021556484 -0.005893743 -0.015184757 -0.05201649 0.02483968 -0.021540882 -0.016001489 -0.012717258
겠 -0.019950425 0.022190139 -0.007648921 0.017454972 0.0065709697 -0.034588713 -0.016227722 -0.01528738 -0.013954935 -0.015683465 0.007841232 -0.009027347 -0.03593366 0.02620869 -0.033023167 -0.04736635
스토리 0.056173377 -0.01628722 0.0059321234 -0.015825141 -0.032818902 -0.030380357 0.03397656 -0.004101517 0.025781723 -0.01166658 -0.041116077 0.011112801 0.029921336 -0.030644005 -0.0032517342 -0.006743462
해 -0.015057281 -0.03396273 0.0062483223 0.0016305402 0.010916902 0.01513976 -0.03804115 0.023677718 0.01861118 0.0042216503 -0.03354219 0.053317167 0.021687495 -0.0019882845 0.01252729 -0.029607575
ㅋㅋㅋ -0.0036484587 0.013356038 0.04887448 0.034014706 -0.0010875579 -0.030502692 0.036042273 -0.091336586 -0.029628085 0.079299465 0.009371859 -0.051917836 0.07810351 -0.058948483 0.08857835 -0.012446486
습니다 -0.012418719 -0.02105362 -0.01174072 0.0038989272 0.010311511 0.005258246 -0.018410299 -0.011003351 -0.011437963 0.013748819 0.0049029244 0.03696263 -0.011322761 0.047694597 -0.009621814 -0.0046839397
듯 0.04943337 0.083123684 0.00088148966 0.050703917 -0.010966358 -0.005013206 -0.02264232 -0.029841715 -0.01448008 0.017333085 0.05096226 -0.016344104 -0.054625176 -0.00938569 0.024182254 0.035798058
아니 0.063244686 0.0058054626 -0.021711601 -0.043930653 -0.025497016 0.0443144 0.06554912 0.053318087 0.042139973 -0.039477494 0.03463966 0.03052592 -0.067132 -0.037491456 -0.06907233 0.043194845
드라마 0.023020776 0.07551049 -0.091931075 -0.05097948 -0.041145645 0.08212003 -0.001306101 0.11122127 0.060394064 -0.065244086 0.07886394 0.08638034 -0.17294677 -0.005837919 -0.076346636 0.07401914
생각 0.083686106 0.015084002 -0.044288415 -0.02930484 -0.028809661 0.015210327 0.017542617 0.02857481 0.052049406 -0.031975843 0.0019995554 0.044707574 -0.015584556 -0.014034315 0.014591119 0.018306037
더 -0.03523174 -0.03450018 -0.011342632 -0.014357695 -0.014031106 0.030859593 0.015212792 -0.033937566 -0.022631777 0.010926663 0.018293243 -0.0033972189 -0.00085005607 0.03499414 0.02970701 -0.015577165
그 -0.011214449 0.013508545 0.031670064 0.05722629 0.0005287576 -0.022818187 -0.007951847 -0.06975897 -0.012733315 0.07034847 -0.02395226 -0.041881632 0.036719613 0.0032694417 0.07813042 -0.013344907
1 -0.018979063 0.019175017 -0.00035285097 -0.0113673955 0.015524273 -0.01113797 0.020171085 0.020510625 -0.012018694 -0.012491538 0.010123735 -0.027787011 -0.026735835 -0.001677669 -0.029958053 0.0017826544
싶 0.03213372 0.0055657835 0.0039369073 0.03234711 -0.005443737 0.013027079 0.00017361873 -0.024355793 -0.003773825 -0.042130515 0.0063799685 0.009440359 0.03006567 -0.047659136 0.0072285654 0.0086585935
사람 -0.010743379 0.031638667 0.053500324 0.015716126 -0.042308133 -0.03849276 0.02957262 -0.082442604 -0.016690692 0.016658677 0.015916785 -0.0634178 0.023997743 -0.0011418395 0.091616035 -0.044692297
때 0.0005540048 0.00054397783 0.014211296 0.041889187 0.060884688 0.012236978 -0.058112588 -0.05581412 -0.050876115 0.035522003 0.016754182 -0.019473795 0.020167882 0.03225135 0.08817084 0.0052170274
감동 0.010871862 -0.0069666323 -0.07629299 -0.052368514 0.009956731 0.09323443 -0.0059398524 0.16229957 0.09360467 -0.034192998 0.031490114 0.09484545 -0.10600579 0.018165817 -0.11922577 0.037780367
배우 0.048834454 0.09817687 -0.010942062 0.029009007 0.013251402 0.025218619 -0.005823662 0.01555866 0.012782253 0.028802775 0.028991219 0.005480071 -0.04320321 0.013289142 0.03422049 0.029042652
함 -0.024840211 -0.026593503 0.008420239 0.025327157 0.007655642 -0.01469917 0.0034134309 -0.015189837 0.00033352472 0.019270742 -0.050714392 -0.016939295 0.055789214 0.043814056 0.031188823 0.020612432
본 0.025980175 0.0060133375 0.046002492 -0.016056435 -0.009816504 -0.0052116457 0.039567206 -0.049085822 0.010636727 0.0032667173 0.04528148 -0.036284372 0.039109774 -0.031407032 0.0050409213 -0.0068728593
까지 -0.02797246 -0.03481333 -0.04070978 0.057065353 0.06716918 0.01771646 -0.04961354 0.014504923 -0.002268767 -0.0021036211 0.020721616 -0.0004926067 -0.06589053 0.04539447 -0.028037133 -0.038257327
뭐 -0.008820863 0.007521375 -0.00777227 0.010132463 0.0076565295 0.03712502 -0.013324638 0.016991412 0.03508183 -0.008116386 0.011731623 0.019745182 0.02348207 0.0061158603 -0.010121236 0.007054475
알 -0.018524429 -0.0033886426 0.016916625 0.008618925 0.072257355 0.017373677 -0.0038203874 -0.021441193 -0.022012655 -0.0017066317 -0.007752199 -0.052150987 0.036392786 0.050607 0.059836812 -0.027845984
만들 -0.104721144 -0.18029356 0.08233753 0.047283627 0.052547622 -0.10742996 -0.066472545 -0.06087906 -0.080563635 0.03630305 -0.19154255 -0.09218428 0.1363394 0.060974095 -0.011627392 -0.13713498
내용 0.015041788 -0.015620679 0.0040112417 -0.0033346906 -0.015577857 -0.007790071 0.0021762387 0.021396693 -0.0143625755 -0.006061767 0.020286208 0.013089331 0.022915367 -0.02240009 0.0018734437 0.014396887
볼 -0.020600732 -0.08829266 0.00085442205 -0.0055736275 -0.010945508 0.025750874 0.03847934 0.027160749 0.013908307 -0.039370637 -0.005101608 -0.029854907 -0.014301498 -0.014883938 -0.055023044 -0.016320495
보다 -0.054616433 -0.03403052 0.040165 0.011446952 0.00676688 -0.049918737 -0.0067541227 -0.028904911 -0.00047041703 0.008319001 -0.019720865 -0.01202211 0.034298062 -0.025395904 0.015511137 -0.019194711
감독 -0.018364059 -0.018798707 -0.011801297 -0.04795204 -0.021221427 -0.017558139 0.020442195 -0.010015496 0.013895135 -0.019359583 -0.03127841 -0.023575569 0.019073945 -0.016938617 -0.025484802 -0.022295397
라 0.063082606 0.05849035 -0.08218094 -0.07353622 -0.055864263 0.007684766 0.04611023 0.060956005 0.06871657 -0.047135185 0.042282313 0.076979876 -0.09951487 -0.009070479 -0.06405057 0.043335956
그냥 -0.017774453 0.015389489 -0.02676974 -0.022110894 -0.0056675626 0.008843626 0.002060084 0.02973601 0.004758259 -0.04634903 0.024220651 0.086671695 -0.0077432496 -0.0047919704 0.007285 -0.043186344
재미 0.040914975 -0.010549696 -0.00586233 -0.043610983 -0.06270737 -0.026224341 0.06323504 -0.0064746053 0.016601006 -0.017068924 -0.026119271 -0.042328887 0.026737856 -0.04215314 -0.04032398 0.0042779306
시간 0.075934075 0.026059067 -0.009598447 -0.04704499 0.019211303 0.0028640488 0.054865222 0.03583207 0.05332324 -0.025834464 -0.003924978 0.012766746 0.020148274 -0.04347892 -0.05398072 0.017569896
중 -0.067791484 -0.057414323 0.0315384 0.046883147 0.02796713 -0.026715918 -0.059824668 -0.019273257 -0.03555288 0.052765038 -0.05425651 -0.0740446 0.038391277 0.08148199 0.026155947 -0.08554534
지루 0.06628975 0.051125176 -0.027406704 -0.027537147 -0.09747388 0.050246906 0.07834513 0.07138425 0.036888417 -0.036972944 0.04326799 -0.019862171 -0.01062051 -0.06106769 -0.024418063 0.043523017
재미있 0.047107205 -0.09940555 -0.035241187 -0.0014649399 0.02063205 -0.027833523 -0.024905145 0.04227112 -0.02174304 0.010764442 -0.08635947 0.011264013 0.02499918 0.045283444 0.016528448 -0.013304728
년 -0.0082003735 -0.034878347 -0.028271273 0.009079435 0.044839803 0.029401395 -0.0024470333 0.020862035 0.008367821 0.011446763 -0.00040443023 0.03878016 -0.0021085688 0.021921225 -0.026076352 0.01080925
였 0.04349736 0.0040348344 -0.0084298495 -0.063320056 -0.07557792 -0.0118628945 0.06607279 0.021018814 0.008911878 -0.051307976 0.0023958515 0.004828714 0.022571938 -0.06948712 -0.046025123 0.0075400835
잼 -0.02198924 -0.09974205 0.025249172 -0.030045187 -0.021879148 -0.08680842 0.051810846 0.015280037 -0.010180167 -0.024632705 -0.07145536 -0.068375565 0.07092021 -0.14448044 -0.006418478 -0.023512833
10 0.07426965 0.02536386 -0.050319284 0.002903443 -0.040598262 -0.0033066699 0.040124275 0.018462878 0.039871912 -0.028771725 0.047170877 0.052999366 -0.025219377 -0.035477497 -0.018095039 0.038322426
사랑 0.16668043 0.17581816 -0.21941751 -0.13560475 -0.05904365 0.18892115 0.038583566 0.24251796 0.22036184 -0.14881779 0.09188911 0.2278991 -0.15728682 -0.07045092 -0.1482654 0.222249
못 -0.015405288 -0.10130391 0.016861916 0.010574795 -0.0012041574 -0.048393384 -0.00022887826 -0.0025074517 -0.027994718 0.02535477 -0.07772483 -0.03180129 0.04408281 -0.058754902 0.051723152 -0.027267817
냐 -0.0883353 -0.14770232 0.0851111 0.123594224 0.09677034 -0.109193146 -0.06374583 -0.10343998 -0.07962919 0.09600165 -0.14398772 -0.1664299 0.097301885 0.065721706 0.0707174 -0.18024822
재미없 -0.024164725 -0.022368152 0.02728288 0.0059319357 0.03528367 -0.029354557 -0.02404561 -0.0097019775 -0.025298225 0.023827223 0.020497598 -0.016186932 0.014704185 -0.041508887 0.06275824 -0.027825646
쓰레기 -0.20870103 -0.20387939 0.07873485 0.08034956 0.16660045 -0.106206805 -0.10960597 -0.032870084 -0.11830808 0.03290395 -0.18156576 -0.114959165 0.06291378 0.15681632 -0.008069191 -0.20189314
서 -0.01669237 -0.061575457 0.04239146 0.03852573 -0.0022972927 0.022389019 -0.052904144 -0.013446507 -0.033848345 0.045429397 0.0004359335 -0.014317278 0.023962947 -0.022463072 0.026079256 -0.0056243003
라고 -0.013932961 -0.0692647 0.07228844 0.048553795 -0.000717079 -0.12426704 0.02388642 -0.08618846 -0.08483092 0.008947014 -0.06915504 -0.12095191 0.11460322 -0.04018918 0.090184614 -0.021363758
니 -0.10353921 -0.041136306 0.039888497 0.07577209 0.104468085 -0.053726327 -0.09736298 -0.045145568 -0.0968703 0.07505354 -0.10099396 -0.07291551 0.09715999 0.055912293 0.08225671 -0.12168486
면서 0.04367843 0.09727196 -0.101252005 -0.045891706 -0.031688597 0.094786115 0.010087722 0.16240415 0.062002264 -0.006103116 0.1067163 0.11928284 -0.16431393 0.019951526 -0.12164133 0.06695347
번 0.01697931 0.008164233 -0.0747997 -0.03740014 -0.08389643 0.028002573 0.027307224 0.09417237 0.066509 -0.08603723 0.026659444 0.07100658 0.015881605 -0.039358832 -0.09110433 0.022238616
다시 0.18793258 0.20442933 -0.22642805 -0.10692216 -0.15380934 0.27869436 0.10062312 0.24929714 0.19666968 -0.22162884 0.236918 0.23155344 -0.23487043 -0.112932764 -0.25039828 0.20281304
나오 0.12676421 0.12863171 -0.1538921 -0.19258316 -0.14616235 0.21606117 0.11645088 0.26291928 0.1276944 -0.17815939 0.21740341 0.19532816 -0.21995808 -0.15599352 -0.22527893 0.16201971
하나 -0.039828807 -0.0051500113 0.007917417 0.057663295 -0.022112597 0.0020655121 0.036778186 0.05671627 0.00467013 0.01081611 -0.007059491 -0.013902677 -0.027743002 0.019071827 -0.02371429 0.011325024
작품 0.035357546 0.043964177 -0.061818954 -0.023913098 0.0011955244 0.061079916 -0.025122136 0.06386213 0.02313882 0.0062104086 0.037698373 0.052748177 -0.0359118 0.035480026 -0.017321402 0.055546463
야 0.027959298 0.0035052274 -0.04966105 -0.0732433 0.03294389 0.023234798 -1.4583871e-05 0.08851894 0.068723574 -0.0682531 -0.04427195 0.035608754 -0.051195852 -0.051589575 -0.033007845 0.023440799
이거 -0.0012711165 0.041493863 -0.04346111 -0.005715004 -0.051741164 0.015650554 0.021650936 0.014214013 -0.008501076 0.019676816 0.0134047335 0.01594145 -0.059298456 0.016492825 -0.0035630765 0.02348845
줄 -0.023157911 0.0386338 0.0014456147 -0.006700886 0.016286947 -0.013674518 -0.00872218 0.011735879 -0.014121098 0.050328974 0.0382466 0.0339281 0.008080978 0.03331944 0.03262438 -0.03318825
해서 -0.036560923 -0.014284775 -0.0031175052 0.030136287 0.03591693 -0.006912595 -0.030614495 -0.055309203 0.004368002 -0.009987923 -0.044796918 -0.007318892 0.026033433 0.04937836 0.013868445 -0.032639172
개 -0.059138607 -0.06271243 -0.030652387 0.016293272 0.0576727 0.020426767 -0.046924382 -0.026457077 -0.0028742133 0.044835344 0.013599811 -0.024689332 0.022013355 0.03351406 0.021597147 -0.065061726
2 -0.065657824 -0.12622961 0.060615335 0.012042213 0.08219362 -0.029010523 -0.040662993 -0.058099557 -0.030640462 0.06570349 -0.09843154 -0.010943528 0.05564985 0.014337698 0.06753946 -0.05371859
남 0.009613841 0.001539124 0.008896014 0.0022213454 -0.011532372 0.006829753 0.01338036 0.019693526 -0.020555217 -0.041245744 -0.019903354 0.025200794 0.036154237 -0.012206885 -0.0011764703 -0.040218942
정도 -0.025831023 -0.044914003 0.037217345 0.068191655 0.013951442 0.009297965 -0.040331986 -0.032540835 -0.02290765 -0.014915269 -0.04721021 -0.0033730888 0.033242777 0.04404595 0.0075922515 -0.016343793
마지막 -0.018609302 0.007582306 -0.009146745 -0.02905321 -0.016578518 0.015476305 0.008154821 -0.018935328 0.039080445 0.011851864 -0.0063483813 -0.004507299 0.044890534 0.012423349 -0.006689851 0.012954768
끝 0.028136533 -0.037558023 -0.06760815 -0.015718684 -0.022749882 -0.010806932 0.043384865 0.004615567 -0.0031768973 -0.029157665 0.019273683 0.028446887 0.01874195 0.013950241 -0.014331509 0.023935404
이건 0.0044635213 -0.031776085 -0.036725946 -0.034078486 0.019585842 0.017618 -0.004158533 0.024810582 -0.007696595 -0.029142266 0.031703997 0.010167706 -0.07051505 0.02165557 -0.0461653 -0.024777886
액션 -0.040966645 -0.0044914014 -0.026209233 0.0009787513 -0.024796207 -0.05201226 0.016949836 -0.00598847 0.02234465 -0.040961932 0.012860555 -0.0109425625 -0.0034629286 -0.04030823 -0.06396123 -0.029485343
임 -0.032202378 0.021839572 -0.030841667 0.003677875 -0.04021365 0.0059843524 -0.0003530891 0.012783397 -0.0029217661 -0.0207077 0.02221682 -0.02112863 -0.0003239215 -0.019274235 -0.019735472 0.0041521713
건 0.06627707 -0.019565832 -0.003517884 -0.035145044 -0.051460665 -0.023106504 0.04434767 -0.044432297 0.019676475 -0.018656487 -0.03442343 -0.024883773 0.060994565 -0.03675476 -0.0015120292 0.010046549
기대 0.02045364 -0.006453508 -0.083582476 -0.035393003 0.008564204 -0.019689796 -0.0070334934 -0.037983518 0.05249371 -0.030895354 0.03702982 0.03960101 -0.032812864 0.05727603 0.025602238 0.025566837
입니다 0.0017921032 -0.020509778 0.011479789 0.087879665 0.035174735 0.014266973 -0.04445171 -0.061134953 -0.07466486 0.070816785 -0.0071495753 -0.052035052 0.007304927 0.064030886 0.037208393 0.0041149445
다는 0.05539821 0.05792971 -0.047668394 0.00041109067 -0.06575768 0.008817562 0.0410838 0.009737246 0.047415532 0.025709549 0.052590918 0.012535009 -0.028026799 -0.0073363236 0.016877767 0.06956526
분 0.047601856 -0.121732324 0.011154889 -0.07611317 -0.021392433 -0.018161489 0.06417218 0.09321039 0.07988517 -0.0718415 -0.101548016 0.044878002 0.030252218 -0.09538656 -0.10755637 0.05148446
라는 -0.048544608 0.015687749 0.020390082 0.047607593 0.024994552 -0.0075296415 -0.021295529 0.016354764 -0.01789821 0.03473413 -0.035829715 -0.027988046 0.025324523 0.054597724 0.0061793886 -0.04837211
완전 -0.003038808 -0.004339212 0.04131004 0.009078338 -0.0022596666 -0.037360005 0.020727072 0.0062552514 0.006124167 0.036801614 -0.006295166 -0.029728198 0.033249483 -0.05956726 0.025079697 -0.045152552
ㅋ -0.041564167 -0.029568212 0.026796933 0.018583596 -0.032463152 -0.06856243 0.012172357 -0.010746642 -0.01018257 0.010437667 0.02519366 -0.027145097 -0.009334293 -0.027296694 -0.055724032 -0.050871786
참 0.022508398 0.05956531 -0.0665572 0.034609478 -0.012393286 0.055330116 0.045198668 -0.014331857 0.01578909 -0.037555974 0.04437927 0.05642398 -0.049296003 -0.009537013 0.042045925 0.044255152
많 -0.032003254 -0.15177362 0.034375545 -0.05158144 -0.022464307 -0.016573476 -0.00023526972 0.039854076 0.00012602922 -0.059162203 -0.0708185 -0.020072317 0.015682628 0.0048734215 -0.09248852 -0.052716658
처음 -0.011724665 -0.027297344 0.040792905 0.013191595 0.036817472 -0.09055434 0.04274982 -0.076096885 -0.06457158 0.021974783 0.016381262 -0.07082473 0.014666553 -0.003316416 0.10933328 0.03321468
장면 -0.00013170851 0.022042733 -0.012298532 -0.029949782 -0.0056585325 -0.0049379524 -0.004431192 0.07832566 0.03234556 -0.03274023 0.017622007 0.017414993 -0.06097403 -0.025610397 -0.09051283 0.04179887
대 0.04662923 0.027745869 0.003148007 -0.03801575 -0.002722126 0.027128683 -0.020402595 0.016200272 0.014572533 -0.0025152361 -0.029998662 0.039745923 0.033372097 -0.00670929 0.043402746 0.005560808
아깝 0.009646608 -0.017478459 -0.06555541 -0.08564777 -0.004505569 0.08360937 0.038399775 0.070698015 0.052570134 -0.05385845 0.02658376 0.10160891 -0.06891887 -0.005429916 -0.10657315 0.044265594
3 0.04270351 -0.1212053 -0.00037145853 -0.049085032 -0.023916988 -0.089269094 0.022339912 0.011182013 0.027223123 -0.002183519 -0.06287765 -0.05117867 0.1321133 -0.09445788 -0.0013214451 -0.023293575
다가 -0.039255578 -0.059414525 -0.029034114 -0.0057972316 0.039301854 0.05278832 0.0018382916 0.044356916 0.030088408 -0.013709695 0.0362978 0.008927245 -0.09237445 0.043486483 -0.046183247 -0.024166835
으면 -0.0032466576 -0.009088019 0.026504152 0.0063028648 -0.018589024 0.021682402 0.024481945 0.033582143 0.0603005 -0.018082857 0.004745063 0.024298118 0.0044842875 -0.048942927 0.008153709 0.03879797
지금 0.0011462034 -0.0012213436 -0.034200676 0.049499266 0.05519347 -0.0082955 -0.08677169 -0.06469671 -0.013644193 0.04771685 -0.030011142 0.021563224 0.002405815 0.05572424 0.07144968 0.026350912
모르 0.047658913 0.060758024 -0.049010247 0.020496305 -0.02710496 0.015641717 -0.00011876087 -0.036675 -0.003103122 -0.015722185 0.074970804 0.028548602 0.014647916 0.027833227 0.1092599 0.024957066
이렇게 -0.008599256 -0.027606873 -0.009717037 -0.015727332 -0.005514801 0.024436813 0.009323821 0.013963124 -0.011085523 -0.014049074 0.009627299 0.006896006 -0.023701299 -0.045209482 -0.030970223 0.011812239
편 -0.0764259 -0.006707498 -0.009025112 0.005851828 0.055257108 0.02460163 0.013788366 0.035200406 0.017876355 -0.048269965 -0.010864829 0.06193119 -0.069901355 0.05435204 -0.050454095 -0.02023863
일 0.10436223 0.09814438 -0.15056324 -0.05926357 -0.1023665 0.14736219 0.06312145 0.03221585 0.057762258 -0.036335506 0.16244207 0.09942978 -0.11709567 -0.11246596 -0.0092499405 0.11350343
돈 0.054074574 -0.10301094 -0.058897357 -0.106557935 -0.043203976 0.009693404 0.054071162 0.062998064 0.04515768 -0.090460576 -0.018194951 0.06693317 0.02406501 -0.030645626 -0.1022631 0.0050114365
이게 -0.010888908 0.045126338 0.01260102 0.028454207 -0.005545739 0.002398189 -0.015728507 0.0028797386 0.0072025806 -0.028296966 -0.0063152257 0.034483876 -0.046314437 0.026640179 -0.00229705 -0.018424315
성 -0.08077881 -0.10295168 0.06438086 0.0520816 0.06200612 0.005574535 -0.051416904 -0.06668684 0.00797031 0.04312975 -0.045240916 -0.0083335675 0.033186533 0.086510256 0.045430772 -0.0241458
느낌 -0.012076226 -0.0721266 -0.010584676 0.010433922 0.022597704 -0.0078023793 -0.058766462 0.020721253 -0.021919958 -0.017977374 -0.04257797 0.063265644 0.052387238 0.009069407 -0.045092393 0.0423
이야기 -0.02554089 -0.06661485 0.048196696 -0.012945461 -0.011732723 -0.059622783 0.04928077 -0.0005665518 0.017971532 -0.07795718 -0.10281288 0.029575193 0.05698952 -0.035250932 -0.006515762 -0.045437753
최악 0.004815975 -0.043093227 0.009016656 0.045270797 0.011756779 0.012369284 -0.0038305656 0.025400974 0.03325135 0.0022911252 -0.04289793 -0.008043561 -0.007775726 -0.011098411 -0.019366896 0.0035790685
시 -0.035110593 -0.02449635 -0.017206006 0.011926651 0.0037012333 0.00042673913 0.010942484 0.010648305 -0.056348372 0.078826 0.011864955 -0.061914753 -0.020998385 0.049826484 0.081119776 -0.019563915
된 0.03295929 -0.007943097 -0.033605684 -0.02289309 0.006030904 0.022334285 -0.038523745 -0.004144143 0.06104914 0.013025018 -0.02353437 0.037508916 0.045189224 0.029185409 -0.027985096 0.018924683
봐도 0.13403995 0.119791344 -0.09579858 -0.049537744 -0.07403229 0.121331796 0.07251355 0.05584599 0.088700466 -0.09251644 0.13707988 0.088072665 -0.14681631 -0.07696152 -0.070718974 0.14216967
님 0.020291848 0.043917105 -0.03771905 -0.03985282 -0.014398677 0.0017058187 -0.016419394 0.020559756 0.055520423 -0.021229917 0.0074282996 0.0077416077 0.0082015265 -0.010162596 -0.03801797 0.01966099
어서 0.058356673 0.017628355 -0.012910072 -0.02530523 -0.004903247 -0.038489986 0.026957659 -0.01837222 -0.008184777 -0.0056379065 -0.010265752 -0.017168436 -0.001916943 -0.025370793 -0.018750185 0.0044308137
애 0.0611365 0.003987669 -0.0020265193 -0.0016243474 -0.050839294 0.03257088 0.032765422 0.017957969 0.018497152 -0.017928882 -0.040239636 -0.021686463 -0.0045899786 -0.057685103 0.02964982 0.031088002
넘 -0.055711076 0.03979326 -0.0052751987 0.019633241 0.018618772 0.015450803 -0.010307023 0.005290997 0.003013267 0.0056420146 -0.012890936 0.021579491 -0.03640877 0.015121704 0.022136727 -0.007715987
다고 -0.026458813 -0.048313413 -0.009122761 0.021633532 0.012303535 -0.018473614 0.033259455 0.016175339 -0.009180249 0.066255234 -0.03177252 0.010457403 0.04859167 -0.012098644 0.045718167 -0.04213375
인데 0.26887137 0.13291246 -0.14703259 -0.26847193 -0.2849522 0.21048342 0.27958804 0.1963684 0.26864672 -0.26303494 0.20983364 0.23193917 -0.15677197 -0.3345092 -0.38474655 0.26612478
이해 -0.0005595266 0.021938516 0.013593761 -0.027989553 -0.0035862115 -0.00309055 -0.02347743 0.0029067278 0.007296689 -0.022001877 -0.024459805 -0.037931107 0.036792196 0.005659585 0.0054574218 -0.024737416
전 -0.03657006 0.01692919 0.054748293 0.0340398 -0.020341987 -0.04222365 0.015310138 -0.15970585 -0.08462336 0.050053712 -0.030373588 -0.08504524 0.06282873 0.030435815 0.102474354 -0.010723683
걸 -0.037019264 0.014596633 0.018728007 0.036535777 0.017684601 -0.031229373 -0.058935978 -0.005397179 -0.084667444 0.03173114 0.0009829416 -0.06437802 -0.02704435 0.025669744 -0.036250286 -0.022871796
별로 0.005642493 0.05993158 0.019710863 0.012876996 -0.005095889 0.06678052 -0.009692507 -0.03187263 0.014094099 0.018114533 0.008274264 0.00030668903 0.014256486 -0.033973232 0.06446804 -0.019953083
명작 -0.044309177 -0.023576172 -0.035483897 -3.459456e-06 0.0059759673 -0.024992635 0.052661266 0.009227432 0.06426637 -0.060209736 0.05849299 0.017661309 0.007686507 -0.025774872 -0.016312718 -0.026928525
그리고 -0.00423669 -0.05526946 0.025918873 0.004271813 0.01552197 -0.029877534 -0.021082422 0.0383705 0.017242847 0.008145826 -0.027199341 -0.011602907 0.02670318 -0.04890353 -0.0025285848 -0.050622415
난 -0.0130078755 -0.12844002 0.02869449 -0.034567434 0.018507034 -0.061372418 0.053025693 -0.027514774 0.01288259 0.036482926 -0.086580165 0.021011451 0.10450953 -0.022259507 -0.046518248 -0.0056838193
여자 -0.03543093 -0.041344617 0.012123175 -0.005163604 0.03431735 -0.029214224 0.00598823 -0.052679367 -0.04155597 0.03684307 -0.0474641 -0.061136518 0.03350203 0.04430656 0.053782277 -0.03889675
역시 -0.020691618 -0.031852525 -0.027207717 0.011839969 -0.0053860983 -0.026955888 -0.0027278136 -0.0038537863 0.01329905 0.023816234 0.01796573 0.054713883 -0.024337739 -0.036876276 -0.0026335684 0.03007522
또 -0.043336112 -0.072332196 -0.113293774 -0.08776268 0.038750537 0.006479109 -0.039608195 0.13312267 0.041374177 -0.092686795 0.0014636798 0.103403725 -0.07587974 0.07648872 -0.12473739 -0.02304764
이상 -0.043655433 -0.031508274 -0.045677308 0.02951355 0.018467989 -0.0023624212 -0.031193273 0.019153634 0.002694654 -0.030238053 -0.06383662 0.00860838 -0.05783564 0.0026663267 -0.11538271 -0.017832497
한국 0.121044196 0.19314912 -0.18397063 -0.1448105 -0.12463807 0.23844089 0.08844736 0.21658662 0.19511196 -0.17653915 0.14288704 0.18601143 -0.18761633 -0.12568216 -0.22634542 0.19019961
는지 -0.061474603 -0.015423429 0.027723722 0.02891596 0.01571095 -0.050765585 0.01173112 -0.061858382 0.004156915 0.047412008 -0.1057751 -0.061020087 0.056870278 0.026914245 -0.006198518 -0.06520851
많이 -0.2112171 -0.12993142 0.14656296 0.16163793 0.16585343 -0.18880858 -0.1674022 -0.16881718 -0.16452603 0.1425687 -0.13059354 -0.08939618 0.14036237 0.21107371 0.07880056 -0.17056724
에게 -0.018301515 0.035179667 -0.054758828 0.024965696 -0.02482894 0.023838846 0.02477996 0.0485779 0.02626455 -0.026778203 0.01125933 0.011825824 -0.12528259 -0.030382259 -0.057988007 -0.020796122
부터 -0.045157798 -0.060688574 0.049390335 0.06274275 0.021970484 -0.040792655 -0.09486658 -0.040737122 -0.052816197 0.030936534 -0.073655084 -0.027389977 0.085140675 0.068900585 -0.049735 -0.070334785
주인공 -0.032303955 -0.11328993 -0.004577679 0.060490884 0.05348797 0.01598484 -0.08490431 -0.039452203 -0.05183067 0.047458943 -0.063323796 -0.060602818 0.05970916 -0.01351088 0.048252746 -0.09005158
받 -0.039272588 -0.09459564 0.044236623 0.027416866 0.013058462 -0.07456976 0.015210142 -0.015465276 -0.043038543 -0.009607649 -0.09408177 0.0026288694 0.055752654 0.020651286 0.059358954 -0.035355646
합니다 0.02737514 0.018316913 -0.04936429 -0.029403908 -0.018952752 0.0044481987 0.021035707 0.0014548916 0.028892599 -0.009138991 -0.005229944 -0.008618001 0.027143845 -0.032278467 0.059664324 0.020061333
두 -0.031151637 -0.0123884445 0.07560097 0.016677717 0.018709818 -0.021729011 -0.08768266 -0.121981524 -0.018375473 0.038269926 0.031027077 -0.02624505 0.0072442894 0.053011525 0.07257759 0.0061501195
살 0.0327177 0.02615809 -0.06578223 -0.0069588777 0.05292343 0.017376157 0.027300267 0.00854822 -0.009389112 -0.0040305653 -0.017673293 0.011427511 -0.03153633 -0.004318609 -0.054679766 0.021878103
우리 -0.03517271 0.0475514 -0.0030134586 0.07857931 0.015412533 -0.0015081113 -0.025427846 0.003311747 0.0072474238 0.010288853 0.0011529728 -0.031386502 -0.07540047 0.07583742 -0.024416255 0.0074626287
만든 0.010601219 0.04724722 -0.041065898 -0.057152074 -0.013150758 0.01780957 0.049484473 0.026764555 -0.008965557 -0.065765016 0.031854317 0.05343379 -0.015921233 -0.053218935 -0.0067525306 0.015997496
길 0.013445155 0.06676266 0.019917719 0.024801517 0.03870817 0.0075647496 0.029336458 0.008721059 0.017056555 -0.026012605 0.0014212043 0.04937781 -0.0059526917 -0.0030594184 0.017217346 -0.0008578249
엔 -0.045238677 -0.061141927 0.013799768 0.0046820873 0.039468035 -0.03238438 -0.023327887 -0.027384803 -0.055166144 0.022179142 0.032986704 -0.041200355 -0.0024632735 0.006746337 0.05696663 0.016351853
요 -0.0028780182 -0.008255587 -0.02817242 -0.0488113 -0.011892201 -0.022190515 0.026858347 0.07469885 0.0494563 0.016227903 0.032568663 0.038335387 0.028714893 0.0049458863 -0.031733558 -0.0042037657
괜찮 -0.0014097639 -0.014317061 0.042091604 0.024028672 0.004308528 -0.022043977 0.010936426 -0.045844447 -0.0069816713 -0.025010437 0.04376174 -0.019064812 0.0172196 -0.01727309 0.047039025 -0.032870237
기억 0.070003025 0.026199853 -0.04084222 -0.014748922 -0.037587415 0.013334898 0.06488572 0.038933583 0.03425282 -0.030668441 0.02724514 0.017397817 0.003173897 -0.02142796 0.01645302 0.010842726
한다 -0.027288387 -0.005575698 -0.0002506813 0.004474765 -0.022349874 -0.014445555 -0.012083959 -0.023246739 -0.000114533956 -0.010237289 0.005423368 0.033829294 0.005079479 0.016285405 0.028585048 -0.0066712494
연출 -0.023417909 -0.023541797 0.00081856217 -0.01825778 0.056840226 -0.05779739 -0.024957284 -0.018594205 0.0031824806 -0.02973409 -0.024948984 -0.067931324 0.038311817 -0.011449199 0.039918814 -0.006554163
ㅎㅎ -0.048687417 -0.0706348 0.080695964 0.06405853 0.060646527 -0.027953427 -0.09326557 -0.037101768 -0.042090822 0.016984697 -0.054304685 -0.07115267 0.0105052665 0.08218274 0.025900373 -0.073530994
때문 0.021881651 -0.026367377 0.034624282 -0.05182743 -0.011148509 -0.025049083 -0.0651471 -0.015131092 -0.04161633 0.024385907 -0.060395535 0.018964196 -0.023996178 -0.00086998055 0.008447226 -0.08888829
이나 -0.13103426 -0.036697734 -0.030390782 0.021673912 -0.02439313 -0.023016028 -0.040691666 0.003659232 -0.015789114 0.03387392 0.032241195 0.012679959 -0.057307918 0.027254228 -0.02566875 -0.025656953
저 0.017469529 -0.062861726 -0.014260106 0.0013306364 -0.024517179 -0.021514527 0.020524543 0.05637099 -0.0014911334 -0.0124139255 -0.0023888298 0.020403113 0.08029842 -0.012164796 -0.052528683 -0.020102086
재 0.04662122 0.037580814 0.045193862 0.041053247 -0.05717625 0.003307109 0.021308325 0.036695674 -0.030212574 0.009939938 -0.014652305 -0.046523727 -0.039614264 0.010298319 -0.014186125 -0.0051609967
꼭 0.02333182 0.030154599 -0.0071814763 -0.003965856 -0.010709262 -0.041874547 -0.057710283 0.013897826 0.014892444 -0.024077803 0.004568032 0.0106469 -0.09684097 0.0055520795 -0.048603017 0.026148153
며 -0.094756186 -0.07051603 0.09102244 0.040035307 0.09701052 -0.09449912 -0.09261545 -0.055861082 -0.060146466 0.10925985 -0.065379634 -0.103194535 0.07874353 0.06357179 0.081321836 -0.09493438
현실 -0.0043515353 -0.090478435 0.0428491 0.019420763 -0.037417736 -0.02835607 0.0031618923 -0.010253329 -0.06752816 0.04040569 -0.061002117 -0.06794238 0.09133597 0.011416552 0.051689245 -0.106381424
랑 0.0015466242 -0.03046308 0.0004567578 -0.021165157 -0.056395706 -0.07978671 0.039259538 0.00041540034 0.025896104 -0.029074773 0.013559915 0.030352244 0.048095584 -0.052305065 -0.07721418 -0.0007905893
긴 0.001452711 -0.034738738 -0.032022934 0.03185124 0.02194683 -0.045712046 -0.029522104 -0.0032292607 0.0036206474 -0.026539348 -0.0035024057 0.032660645 -0.0031194498 0.04538399 0.006706348 -0.045695737
무슨 -0.03086369 -0.060097598 0.005571502 0.00548083 -0.00497505 -0.06162207 0.042739287 -0.014907436 0.011172024 -0.016394256 -0.0031222221 -0.015225988 -0.02034637 -0.02815812 -0.064788185 -0.028873127
내내 0.079325065 0.07431467 -0.03882128 -0.035519376 -0.019187333 0.0020615219 0.035517894 0.039306022 0.062546924 -0.040490028 -0.017052388 0.01510161 -0.078015074 0.0001687817 0.0020025307 0.05787393
죽 -0.1528096 -0.008305806 0.013100196 0.09745547 0.027981726 -0.067823246 -0.095851116 -0.080460526 -0.043505564 0.078524694 -0.03780588 -0.017154213 0.05744176 0.036395345 0.021438345 -0.07602514
결말 -0.053286865 0.08739119 0.08716712 0.0809156 -0.026311748 -0.07044204 -0.0056442907 -0.059331547 -0.063106425 -0.0074788514 0.022801688 -0.07546481 0.020622294 0.0071687847 -0.0057682754 -0.035253722
남자 -0.00047189326 -0.06860217 0.020902127 0.043973695 0.010934695 -0.07661322 -0.03936527 -0.025925945 0.0041074455 0.031240907 -0.0070537007 -0.017067352 0.020880872 0.011475154 0.021609649 0.037938118
마음 -0.05003963 -0.10160349 0.021084314 0.036123894 0.054344706 -0.059052974 0.0037588289 -0.025306491 -0.07929607 0.065726444 -0.03813978 -0.0638921 0.04475718 0.03803944 0.1146854 -0.06808076
전개 -0.07011185 -0.09397839 0.078067556 0.12075289 0.10414123 -0.084337 -0.12998225 -0.04967152 -0.042479545 0.08110865 -0.08569961 -0.089840055 0.11337577 0.14128354 0.10429317 -0.16389035
세요 0.021372767 -0.054179866 -0.021894125 -0.035417076 0.021984883 0.027044538 0.04406419 -0.020604558 0.0626656 -0.008471567 -0.022821572 0.014736309 0.010765214 -0.017567448 -0.024575613 0.005075878
데 0.048884317 -0.02008762 0.053152222 0.05897125 0.03206753 -0.04032464 0.02828486 0.027251411 0.016129836 0.01399204 -0.07448915 -0.02666771 0.030265018 -0.026474964 -0.0053214887 -0.07129232
소재 -0.023658033 -0.07731079 0.014346957 0.031779673 0.051770363 -0.082049206 -0.09486321 -0.01896685 -0.061825797 0.064190835 -0.028530978 -0.027669754 0.043637067 0.08924552 0.12523495 -0.05292632
속 0.008260155 -0.07129803 -0.082020655 -0.10055924 -0.008712675 0.053663775 -0.011573176 0.091070004 0.054293066 -0.02798788 0.013818676 0.0963302 -0.1200733 0.005598178 -0.061439067 0.035631455
공포 0.053489458 0.062227163 -0.05424094 -0.0012420402 -0.08305577 0.07163116 0.048919536 0.08215637 0.07033532 -0.1006381 0.11755467 0.047460478 -0.12509932 -0.0332496 -0.011481528 0.05961375
아서 0.06456928 0.010884009 -0.042794522 -0.04183995 -0.029391462 0.04719704 0.09695688 0.05894204 0.07622053 -0.067120776 0.07301065 0.038777877 0.011884429 -0.11293455 -0.07035482 0.056252442
다른 0.025248213 -0.056794073 0.0063967253 0.009846621 -0.06254345 0.017255088 0.016656676 -0.029760614 0.043076146 0.0015105866 0.015350829 0.019642683 0.09070979 -0.050105274 0.04565775 -0.011315673
인생 0.01591359 0.009143396 -0.042001348 -0.023172671 -0.031261496 0.012569873 -0.04329853 0.022554278 -0.05658311 0.008242406 0.04397164 0.01904035 -0.021174222 0.0032227924 0.015703533 0.014772748
씨 -0.014779705 0.08007173 -0.028985975 -0.022312893 -0.07126864 -0.035879657 0.01871709 -0.040167656 -0.009189373 -0.036320988 0.07037143 0.03004085 -0.028531112 -0.01764534 -0.0010110446 0.0025592437
짜증 0.0154835265 0.025685832 0.003139562 0.015748082 -0.032778557 0.004784794 -0.012466232 -0.009453611 0.013948804 0.004849476 -0.011762173 -0.028571045 -0.019622229 -0.023124091 0.019471558 0.06549102
짱 -0.066952184 -0.062774636 -0.057927117 0.00539028 0.017717866 0.0075347577 -0.041693047 0.013974421 0.045202192 -0.024545576 -0.01091247 -0.016268177 0.0076276427 -0.018456517 -0.07981272 0.0082309535
뿐 0.02517224 0.0789189 -0.033480015 -0.06963069 -0.043199483 -0.034187548 0.04113032 0.09173076 0.03911799 -0.044350695 0.006569236 -0.008369879 -0.03039345 -0.023201069 -0.031142516 0.07973742
별 -0.020785203 -0.019897789 0.043177467 0.1052463 0.069113396 -0.045885768 -0.048261788 -0.08101354 -0.0440302 0.070519336 -0.050619476 -0.08582418 0.03131104 0.09559562 0.030049043 -0.113854885
아이 0.024998674 -0.05419589 -0.06538839 -0.0719829 -0.027059907 0.07767449 0.0010828809 0.023813179 0.08116188 -0.045078587 -0.017370662 0.020308102 -0.0643864 0.009245715 -0.096407235 -0.00984693
아요 0.011340021 0.04524982 -0.028064279 3.9086037e-05 0.034185957 -0.019815445 0.042255916 -0.050459325 -0.017227726 0.012322744 0.03892989 -0.024111213 -0.0051905904 0.012614401 0.024405638 0.018213991
필요 -0.0006169629 0.05200238 -0.05310008 -0.058433738 -0.046695642 0.0013875355 0.033646267 0.016569976 0.04281896 0.0041572805 0.008667695 0.0032823896 0.025976691 -0.050694056 -0.022770863 -0.021664388
은데 0.010190083 0.001631861 -0.010491516 0.0052300827 0.0044066925 0.04259509 -0.0129189575 0.05674157 0.024873825 -0.021002833 -0.01395655 0.004591001 0.017414778 0.011857008 0.034598287 -0.0038772512
유치 -0.014765772 0.13074122 -0.007662205 0.062400423 0.019869203 0.016502474 -0.012502184 -0.01646378 -0.000491524 0.02074805 0.059689954 -0.0625092 -0.08225554 0.033501532 0.014486571 0.0569943
가장 0.041788075 0.1289954 0.03953955 0.0560573 0.003829754 0.030295974 0.014538545 -0.034903176 -0.006890715 0.011335005 -0.00036278792 0.0068504377 -0.046524785 -0.005199537 0.06017521 0.011457959
음악 -0.14044656 -0.056205664 0.012786497 0.07881119 0.1457999 -0.045402188 -0.09865072 0.0071167555 -0.05810728 0.04104198 -0.11165989 -0.07156368 -0.02993715 0.19823365 0.06100668 -0.033014856
일본 -0.027796628 -0.02199246 0.02150628 0.011925805 0.00021878578 -0.03776109 -0.0029356317 -0.057569593 -0.0443202 0.003665358 -0.012218859 -0.048952892 0.017470239 0.01295716 0.06086373 -0.03500121
낮 0.14263111 0.044754587 -0.1593092 -0.11554392 -0.12079292 0.14562498 0.11501355 0.16436107 0.21523099 -0.12742877 0.14294885 0.13872983 -0.15159366 -0.12797412 -0.19450174 0.13792478
오 -0.04963598 -0.12634294 0.079118505 0.08423935 0.12245185 -0.1298251 0.011379419 -0.10083967 -0.09767103 0.09683965 -0.119317524 -0.14134645 0.12389477 0.052734293 0.040157236 -0.08864439
반전 -0.0005566062 0.035544936 -0.087863564 0.0061485446 -0.048885137 0.07385307 0.033783123 0.11241783 0.08089632 -0.06003259 0.027214926 0.06332007 -0.046698887 0.012023734 -0.058912937 0.010268685
수준 -0.028026868 -0.0378685 0.019208897 -0.013595275 0.08403416 -0.008605231 -0.03647574 0.058467418 -0.018675474 -0.029780185 -0.04436137 -0.022444902 -0.023961276 0.0786399 -0.0032407285 -0.0031404854
다니 0.004092845 0.029655525 -0.03902691 -0.00037263497 -0.036261763 -0.021522736 0.02122247 0.0073252846 0.03710687 -0.034856178 0.033670958 0.03755922 0.025395518 -0.035216402 -0.0008303174 0.08261099
웃 -0.0032376894 0.0048129857 0.05203772 0.095496126 0.009809373 -0.0197959 -0.017302712 -0.084034525 -0.048619878 0.017032012 0.026040813 -0.068215944 0.034559097 0.012587126 0.026099218 0.027857093
매력 0.15625349 0.15443201 -0.09819039 -0.2065444 -0.06504136 0.15045092 -0.0024993801 0.17640644 0.11255189 -0.134671 0.0856737 0.18498316 -0.099442266 -0.15645777 -0.06591462 0.13376966
인지 0.014211603 -0.028385049 0.017297957 -0.018998243 -0.0033552295 -0.0482109 0.0072530126 -0.022400498 0.006186662 0.0032712556 -0.015137313 0.019387893 0.060895983 -0.01678166 0.0077368747 0.024670234
가슴 -0.13780473 -0.014563329 0.11601163 0.21208164 0.16201656 0.061237276 -0.21162364 -0.120436735 -0.16124244 0.15299407 -0.031130292 -0.08978286 0.019652246 0.25031316 0.08252812 -0.059885405
맞 -0.040924676 -0.041477785 -0.03516476 0.044590533 0.114701554 0.06919037 -0.10561571 -0.0052481457 -0.024812428 0.06739706 -0.08398269 -0.045864765 0.023540583 0.08987589 0.088453725 -0.070932716
없이 -0.016789304 -0.031182295 0.012599235 -0.057682503 -0.019308163 0.0044002086 -0.007691308 -0.021162102 0.009076758 -0.041824248 0.041898273 -0.017750831 -0.037355337 -0.019498842 -0.042882077 0.002266763
원작 0.007103754 0.055314265 -0.048684843 0.008253491 -0.009858375 0.03384586 -0.023211336 0.03896392 0.054901402 -0.03292531 0.063909285 -0.01444692 -0.02883132 0.01863885 -0.027979443 0.03281175
인간 -0.05298338 -0.009095181 0.12255459 0.16735387 0.10971099 -0.1013234 -0.15043686 -0.14169651 -0.13928856 0.15692914 -0.034564357 -0.09146249 0.069060005 0.16040975 0.1391124 -0.06722733
ㄷ -0.00014000393 0.024456508 -0.026034953 -0.00047985863 -0.025400508 0.010538924 0.017901508 -0.055815626 -0.06756191 0.049230784 0.052873697 -0.038687985 0.031187167 -0.018586703 0.0029786075 0.010397564
밋 0.028237946 0.07666474 -0.018707873 -0.05059476 -0.015251654 0.008210928 0.020229252 -0.029153353 -0.005518088 0.0059640245 0.0140438955 0.028934006 -0.031834405 -0.019881204 -0.040377624 0.060732063
굿 -0.010266723 0.056614265 0.016354647 0.0020116158 0.021302866 0.007862616 0.0459264 -0.030978806 0.018674808 0.00069204456 -0.020672511 -0.00631575 0.056018047 0.042055316 0.056157965 -0.02877383
높 -0.00090979127 -0.056974895 0.015452302 -0.007106276 0.026482977 -0.08147459 -0.06598514 0.039402127 -0.025955211 0.03487842 -0.05198528 0.0036822543 0.022143213 0.05636814 -0.03888666 -0.04101161
만드 0.046882 0.046594977 -0.044719033 -0.084728174 -0.06389754 0.087296225 0.053154413 0.09724121 0.062479414 -0.03841254 0.12244007 0.10130252 -0.06798605 -0.077159196 -0.08564481 0.08118223
눈물 0.008372252 0.02536188 -0.00013570764 0.04785908 -0.014467684 0.015327501 -0.016852986 -0.023856191 -0.0053668516 -0.030741284 -0.008518516 0.03844675 -0.056642707 0.054914072 -0.038774807 -0.035912838
급 -0.0458434 0.0013778398 0.01931766 0.020460153 0.015435699 -0.03596552 -0.04936853 -0.006707925 0.0020997156 -0.0037147007 -0.052853312 -0.07309234 0.020368911 0.025276737 8.9923735e-05 -0.035643354
보여 -0.15487562 -0.14006348 0.04459886 0.033404596 0.05445 -0.13849771 -0.021704284 -0.016253 -0.054654777 0.024717536 -0.16965829 -0.017577661 0.06083835 0.06835425 -0.006619074 -0.13410081
준 0.005783047 -0.060172196 0.008782275 -0.07148726 -0.08862804 -0.0033805491 0.041065 0.035844382 0.00085870863 -0.056816626 0.0124825 0.022188142 0.059489895 0.009833813 -0.09773959 0.002894805
찍 0.033971146 0.05841352 0.008723228 -0.025886588 -0.018308189 0.012559294 0.028543081 -0.007064686 0.030958716 0.017995007 0.021215048 0.028881133 -0.043222662 -0.012602212 0.0387735 0.0886593
인가 -0.07742141 0.012092716 0.14323586 0.095289536 0.03164145 -0.08005819 -0.049746983 -0.10561954 -0.11292928 0.098470025 -0.050663445 -0.08903003 0.07560441 -0.05785149 0.084168255 -0.05817994
노 0.014998925 -0.0766593 -0.007904333 -0.037107132 -0.016183432 0.08380298 -0.0465226 0.06991492 0.1073257 -0.10219668 -0.020193636 0.030539654 -0.017702838 0.02921637 -0.09413668 -0.034909155
코미디 -0.029251648 0.054010667 -0.09768145 -0.059083372 -0.024206312 0.086434975 0.03300384 0.080969505 0.03782013 -0.07751093 0.09212269 0.049904536 -0.043672163 -0.031863313 -0.079458915 -0.0051274784
용 -0.011180369 -0.043029446 0.047662742 0.030392887 0.026882714 0.013616105 -0.033920128 -0.011656218 0.01623974 0.06171451 -0.026512489 0.02715424 0.008645955 0.00974202 0.06079086 0.018437704
신 -0.05291476 -0.025253346 0.03198181 0.03273815 0.049231507 -0.03078689 -0.128349 -0.028315352 -0.012292696 0.03210896 0.009157223 -0.052214526 0.02276679 0.13202356 0.0225177 -0.0406938
마 -0.029884463 -0.038242172 -0.023690525 -0.08931197 -0.047315232 0.005042061 -0.03669023 0.06492804 -0.03544182 -0.047644965 0.02305433 -0.014229629 0.019384172 0.033199567 -0.0047389553 -0.055484433
화 -0.16804993 -0.15309528 0.11833077 0.08206494 0.13127533 -0.13706446 -0.12676202 -0.08006718 -0.14946789 0.09548131 -0.076814644 -0.07709851 0.12585612 0.15763748 0.07915219 -0.13820824
여 0.0064483173 -0.014357146 0.010912986 0.010397029 0.030589128 -0.022864541 -0.030753655 -0.0027327295 -0.003246169 0.04213439 -0.06142685 0.0016416188 0.022238415 0.001913799 0.059667263 -0.012877631
모든 0.0703332 0.015435112 -0.13203497 -0.11254991 -0.06432499 0.018202804 0.09341651 0.08077008 0.122146115 -0.08717627 -0.0029977278 0.07536744 -0.026869293 -0.06269608 -0.17039584 0.025767108
추천 -0.029973734 -0.012313451 0.017593654 0.14028051 0.059202187 -0.08891172 -0.11879114 -0.07994455 -0.07617035 0.028082142 -0.003256102 -0.05903875 0.02302043 0.100681506 0.12015153 -0.0977117
아직 -0.009138527 0.009406157 0.021743286 0.05848114 0.024854992 -0.02844096 0.00645368 -0.014861688 -0.0069624474 -0.022284504 0.023596 -0.0078072683 -0.027839538 0.011195632 -0.0114200795 0.04100415
쓰 0.033376165 -0.040244915 0.011074602 -0.018740438 -0.051608376 -0.021098068 0.06379525 -0.0049888226 -0.010954503 -0.030954119 0.022028739 -0.006266879 0.07303266 -0.05458481 -0.04767322 -0.02617359
처럼 0.03634859 0.004419991 -0.018890815 0.018323516 -0.009546226 0.0036196006 0.038514342 0.0074051446 0.030880896 -0.0074479417 -0.012611862 -0.03470056 0.057620008 -0.015247445 0.015748365 0.029880526
아닌 -0.06872423 -0.05295952 0.10069116 0.13711607 0.09856606 -0.10122543 -0.11673886 -0.09278358 -0.092692345 0.08727451 -0.06021288 -0.16157411 0.08758072 0.051021423 0.12143483 -0.11687342
눈 0.009873959 -0.000772284 -0.030668592 -0.019288613 0.022159575 -0.006146173 0.015058591 0.025628509 0.0007945905 -0.022758406 -0.073040456 -0.019008495 -0.02598868 0.016502868 -0.014014769 -0.069333605
울 -0.03319337 -0.06136542 0.04294483 0.013624349 0.019244302 -0.031891324 0.0048607634 0.04753828 0.039513186 -0.045770966 -0.094558574 0.017111061 -0.0012468111 0.064402625 -0.099178635 -0.07182475
자체 0.029558167 0.038093705 -0.068941996 -0.058258593 -0.040443588 -0.0076828804 0.104800746 0.02257736 0.049507473 -0.07541577 0.105219774 -0.00291123 -0.023513664 -0.07750631 -0.06248811 0.029701803
몰입 -0.0036584032 0.04180752 -0.03697236 -0.039952617 -0.02382941 -0.004029651 0.0364969 -0.01645882 0.01795347 -0.0001955992 0.0048533613 0.05350309 -0.003917855 -0.05340726 -0.003416248 0.02961442
대박 0.13108665 0.14656867 -0.17717458 -0.20011619 -0.16026233 0.21908103 0.11551556 0.24120025 0.14866456 -0.1637174 0.095517844 0.21384224 -0.1650838 -0.13658972 -0.31283718 0.1948338
란 0.04656411 0.018267805 -0.017814707 -0.02036314 0.0469028 0.011036089 0.014658641 -0.029212026 0.05734666 0.008079663 -0.0032352093 0.030742405 0.027564108 -0.009426582 0.052111205 0.012703372
몇 -0.004607889 0.05860704 -0.023773016 -0.03192847 -0.062424257 0.024640197 0.024611274 -0.036624867 0.029965717 -0.06728739 0.05005775 0.02412796 -0.06137829 -0.031310383 -0.014642762 0.0037612661
스럽 0.0575462 0.020301273 -0.016565625 -0.010002851 -0.00819549 0.044804398 0.036530435 0.0071553756 -0.0048817024 -0.02058704 -0.0023989421 -0.017270632 0.042477068 -0.038977694 -0.0322654 0.018708458
실망 0.05827525 0.06870758 -0.073708735 -0.027765501 -0.07322325 0.019942353 -0.0052298983 0.07689303 0.07289253 -0.00043341634 0.014329554 0.042880572 -0.023889959 -0.055257566 0.012575289 -0.025234532
을까 0.07586054 0.007131224 -0.016550753 -0.008161349 -0.027766462 0.014590094 0.061446827 0.010731721 0.02885605 -0.01910058 -0.0020792468 0.02401403 -0.019208029 -0.019452576 0.004502221 0.008106782
대한 -0.082968324 0.013153125 0.013123238 0.008270482 0.03553026 -0.087466955 0.0031708118 -0.065392144 -0.046425518 -0.007773707 -0.0037716578 -0.05931158 -0.005046408 0.013751233 0.028889542 -0.007696762
는다 0.03329049 -0.06941404 0.10093451 0.057479046 -0.006814906 -0.021010965 -0.04337126 -0.06992965 -0.019590668 -0.0028018102 -0.030679964 -0.025675902 0.048740774 0.027343413 0.023763983 -0.047246214
그런 0.024335114 0.018100373 -0.043176264 -0.03274472 -0.065289564 -0.0021449511 0.053945668 0.04265936 0.03786842 -0.10395181 0.040866528 0.0019319314 0.026262615 0.015986655 -0.04566182 0.011030234
죠 0.03693711 0.056453977 0.03977202 0.06613142 0.009761006 0.038341373 0.011857731 -0.012841124 0.006398752 -0.02110772 0.014275632 -0.009242939 0.010309929 0.004808716 0.009187585 -0.0023935814
솔직히 -0.05268564 -0.02401085 0.039717246 0.014238645 0.019214114 -0.10193957 0.0671669 -0.043327413 -0.056750983 -0.0047101025 -0.014492066 -0.055474754 0.038578972 0.010889882 0.011329286 -0.00906347
캐릭터 -0.047949523 -0.085075624 0.045141973 -0.0063393754 0.025315369 -0.0062597673 -0.083073586 -0.007986803 0.0024842164 0.040944993 -0.046587117 -0.059658926 0.017772384 0.038957257 -0.016053902 -0.050379958
아주 -0.11381766 -0.104998074 0.1075274 0.049772777 0.0147403 -0.021697795 -0.03906565 -0.11563429 -0.03888127 0.060165405 -0.083866246 -0.028320884 0.118935846 0.05301115 0.0889444 -0.08944898
모두 0.0049960003 -0.018159779 0.013014261 0.03807463 0.0534144 -0.033734053 0.0028663927 0.031885765 -0.012050228 -0.043380763 -0.034652516 -0.020529052 0.0068001524 0.017341103 0.00831814 0.010418279
전혀 0.039404612 0.13526507 -0.05718298 -0.038309854 -0.058049127 0.06086677 -0.061915413 0.05811574 0.015378665 -0.007981169 -0.0017442185 0.016889196 -0.03782628 0.047209904 0.042256955 0.046300046
가족 0.04587631 -0.02939319 -0.13980067 -0.08712529 0.0075212764 0.08042809 0.0066309473 0.13306719 0.048157334 -0.0832507 0.011765379 0.09851689 -0.119070664 0.0030411873 -0.14682868 0.068777144
여운 0.023103803 -0.004124626 0.014856732 -0.00041384462 -0.046520196 -0.03342292 0.055999365 -0.057124667 0.030365402 -0.025176985 0.0047559743 -0.037749413 0.047753815 -0.060882036 0.008688746 0.060013562
건지 -0.14335434 -0.058518264 0.07570293 0.11567031 0.024799578 -0.14624175 -0.08105453 -0.13103978 -0.09400832 0.122054674 0.004725303 -0.10936955 0.11432493 0.054281082 0.09003575 -0.09958344
연기력 0.0051585725 -0.075902194 0.07218969 0.0038498605 0.031716127 -0.041137524 0.01045316 -0.01436914 -0.030706665 0.014144431 -0.07606596 -0.10390495 0.14237185 -0.013203128 0.035330757 -0.02789162
다면 0.03817685 0.036381558 -0.061829984 -0.024769213 -0.027838835 0.055916637 -0.01186147 0.066074856 0.08483135 -0.039363764 0.02329792 0.08097243 -0.052141793 -0.033499204 -0.0072119483 0.08608612
될 -0.08088709 -0.06482679 0.08820154 0.06244014 0.115521416 -0.09867174 -0.12931806 -0.01144539 -0.1269974 0.12710413 -0.086263195 -0.15039042 0.12462312 0.13205089 0.058546137 -0.117510475
뭔가 -0.004463001 0.05165564 0.027788099 0.028912658 0.028775055 0.044415403 -0.019972637 -0.05204025 -0.035671227 -0.0008018478 0.0036495796 -0.04519237 0.0024377892 0.037967823 0.018144436 -0.010496193
ㅎ -0.004139236 0.049316727 -0.038728148 -0.017671108 -0.021717293 0.04540557 0.0027393098 -0.042765215 0.0063977106 0.0221741 -0.024343686 -0.0072574597 0.01744525 -0.0018247155 0.0319109 -0.019767731
그래도 0.15892595 0.14531843 -0.16356541 -0.16758116 -0.14608602 0.26557842 0.09321406 0.23968214 0.2022682 -0.16502428 0.22976384 0.20549376 -0.16805457 -0.10218395 -0.14783399 0.18183656
후 0.02736487 0.016229851 -0.017535888 0.06696874 -0.031405088 0.03441274 0.0009483809 -0.048647106 -0.02416122 0.042174347 0.04507758 -0.027787292 0.07060336 0.0033660568 0.0710417 0.04855937
근데 -0.08097937 -0.022494195 -0.0018462167 0.04421234 0.02627672 -0.011749328 -0.015778275 -0.033576686 -0.028757302 0.011258993 0.027613556 -0.019879902 0.057749245 0.052923985 0.06299122 -0.038885042
나라 -0.09494599 -0.06022107 0.017547738 0.04855255 0.03509287 -0.03663395 -0.06648972 -0.015938327 -0.018801633 0.018913643 -0.06359205 -0.03959331 -0.017114276 0.071860686 0.031219171 -0.06547722
시리즈 -0.0060587786 0.04799428 0.004877721 0.049073096 0.011503228 0.0015170764 -0.023244468 -0.07044711 -0.001707138 0.024557682 -0.021968443 -0.023149941 -0.02178194 -0.01874639 0.0154752955 0.014598021
표현 0.004733187 0.010602036 0.027315201 -0.026130388 0.0030357977 0.054949734 0.002550928 0.01468082 0.01066444 0.010784546 -0.01180633 0.102356724 -0.0069659753 -0.023213087 0.01672097 0.035576582
작 -0.032194674 -0.0013775951 -0.019082677 0.028186416 0.0063439244 -0.003055709 0.0042262645 0.01689363 0.058155507 -0.06467173 0.01167232 -0.0016561218 -0.047165845 0.012806949 -0.014574706 0.070061795
모습 0.0065934416 0.0028737753 0.017940424 -0.032349773 -0.020048542 0.0076152426 0.058365505 0.047239643 0.034769755 -0.023939056 -0.017208586 -0.02858625 0.005675487 -0.050368235 0.023302361 -0.03033304
계속 -0.040343598 -0.040976666 0.06528652 0.0027428428 0.07765833 -0.12031322 0.019511476 -0.029444665 -0.093330234 0.050641328 0.047234885 -0.083662555 0.03314135 -0.0012463918 0.04387741 0.034739193
먹 -0.046486195 -0.12957035 0.03326395 -0.05800574 0.06982843 -0.069155626 -0.023678415 0.015792519 -0.019964332 -0.0044130404 -0.101893835 0.0010074285 0.08471101 0.038315784 0.003965557 -0.051735893
공감 -0.031036267 0.021350978 0.032513466 -0.017277561 0.06279152 -0.0027726176 0.024134606 -0.019552585 -0.06365706 0.04352721 -0.02061393 -0.033319402 -0.03172403 0.062580176 -0.018080087 -0.020378377
이랑 0.028362405 0.031725124 0.01066043 0.03240922 0.021530058 -0.020928286 0.014303465 0.036276143 0.040944185 0.016332235 -0.032979593 -0.007153368 -0.018604718 -0.008773218 -0.017458925 -0.04048896
비 -0.10798137 -0.015409563 0.059442766 -0.02941477 0.039868705 -0.02301744 -0.06253241 -0.0184697 0.032291118 -0.010243965 -0.026659247 0.01460781 0.038933873 0.06977234 0.009457702 -0.05156268
제목 -0.18313172 -0.16539885 0.12110547 0.1610439 0.18674904 -0.14945032 -0.15521994 -0.11357738 -0.18017575 0.15954983 -0.27452713 -0.14688967 0.13802096 0.22121179 0.18604082 -0.18071951
극장 0.01318907 0.068507195 -0.13361965 -0.048581883 -0.054324567 0.08851852 0.078656904 0.09236196 0.07365441 -0.044445984 0.042953014 0.006052167 -0.017217867 -0.04249719 -0.0061990214 0.025476305
치 0.034442186 0.07298309 -0.06458238 -0.0042105094 -0.0017529618 0.07860102 0.00862664 0.07298621 0.11253083 -0.10229636 0.011267274 0.07207863 -0.10807714 -0.023717334 -0.07460212 0.063816786
이걸 0.061584797 -0.0041739233 0.04272842 0.015931025 0.052020244 0.011531093 0.028637659 -0.03302314 0.0039059331 7.877863e-05 -0.021160182 0.007461771 0.023799527 -0.0495438 0.000950621 -0.041762587
대사 -0.007857233 0.041231185 -0.05073801 0.0014532108 -0.024128437 -0.0399137 0.007522652 0.014191671 -0.045482147 0.054504603 -0.025051277 0.011582172 -0.051505055 0.0068912064 0.04853632 0.021917297
그렇 0.050001334 0.046956398 -0.008293241 -0.026785333 0.03136973 -0.0105821155 -0.049205966 0.0149524845 0.0076471777 -0.037691485 0.036333308 0.01770732 -0.06408326 0.023371033 -0.047893897 0.037845373
부분 0.037103184 0.05867719 -0.051754393 -0.06170878 -0.014676532 0.060189247 0.008926989 -0.050410572 0.033578906 0.006722198 0.030042032 -0.025518524 -0.009473494 -0.006467282 0.0437465 0.048471536
바 -0.06077162 0.032082714 -0.054740686 0.003000558 -0.022907013 0.06542873 -0.050431635 0.029693192 0.020226352 0.028232813 0.013792738 0.011720812 -0.038453095 0.0121610565 0.008692867 -0.026256884
개봉 0.030907698 -0.02179144 0.005494011 -0.009377383 0.017922774 0.009227502 -0.009472438 0.017622137 -0.007259197 0.036121532 -0.011797272 0.014860488 0.026036546 -0.0124996565 -0.018129494 -0.0023519236
대단 -0.12893386 -0.054992147 -0.006650198 0.01412006 0.027980864 -0.07864253 0.024314282 0.0130120795 -0.05234068 0.0063602044 -0.034265444 0.01704875 -0.00920374 0.016087763 -0.019272765 -0.06822903
어디 -0.033052847 0.0053153746 -0.028852185 -0.074563645 0.0008921852 0.016125709 -0.007462809 0.088422716 0.03660737 -0.015036075 0.02284684 0.072643355 -0.03556455 0.042591106 -0.08717562 0.041874465
작가 -0.07809175 -0.025449665 -0.014178718 -0.018570805 0.02139315 -0.04505719 -0.046915255 0.00087553967 -0.032455698 0.022029944 -0.044583637 -0.014099201 0.041631624 0.050718367 0.009897148 -0.0077704703
OO -0.059499517 -0.039332625 0.037282925 -0.008331183 0.028999267 -0.025280744 -0.05009917 -0.05761484 -0.051067807 0.027603518 -0.03089367 -0.05592179 0.000731027 0.052613024 0.075818196 -0.0155652985
진 0.060793813 0.04449954 -0.0443981 0.0028080037 -0.019760361 0.06757107 -0.026695158 0.010727085 -0.014521171 0.02371234 0.04758849 0.022762695 0.016122563 -0.018071039 0.062658094 -0.008001507
아쉽 -0.1593679 -0.09654911 0.034914646 0.039123625 0.060386814 -0.08572583 -0.044085212 -0.073373094 -0.06996999 0.03356457 -0.14196715 -0.08047331 0.015765445 0.06667549 0.059778675 -0.13441922
기분 -0.047109965 -0.0059906645 0.024827916 -0.019930849 -0.008113363 -0.040281173 -0.056250557 -0.080276996 -0.06860857 0.024804294 -0.09637404 -0.013927479 0.05837197 -0.008985514 0.04689642 -0.035333306
된다 -0.051696107 -0.073582016 0.07438439 0.004441334 -0.016425401 -0.020976897 0.07278182 -0.06633864 -0.022433342 -0.01970921 -0.10054868 -0.03543266 0.06354381 -0.0027109964 -0.045005932 -0.08368145
제 -0.08863842 -0.024871457 0.070413895 0.01896035 0.009926241 -0.07623374 0.0050022826 -0.07638375 0.003835401 0.026321003 -0.0530904 -0.05837105 0.066054225 -0.05797752 0.040406995 -0.050880935
진심 0.018513424 0.045590818 0.028299812 0.017199652 0.03530032 0.014299085 -0.001790962 0.050673828 0.059677266 -0.015915079 0.026319344 0.038688652 -0.070600785 0.03666087 -0.013431048 0.04309224
4 0.021798661 -0.06427595 -0.03246859 -0.053349793 0.026644124 -0.009079481 -0.02506825 0.033560824 0.036319196 -0.03588336 -0.0576379 0.031958356 0.037166845 0.0011020789 -0.060056433 -0.04170722
구 0.043037456 0.08431633 -0.020347051 0.033904526 -0.006359205 0.050651472 0.039849993 -0.011971816 0.010624128 0.010852199 0.038738184 0.036958557 -0.030161558 -0.008581147 -0.033075694 0.0384155
타임 -0.06864645 -0.044666737 0.02059604 0.03130505 0.064859405 -0.019386474 -0.08125177 0.028037775 -0.05016987 0.061997827 -0.060568612 0.040023077 -0.015133944 0.03930865 0.0028158925 0.016075177
해도 0.0037677384 0.04567274 -0.06555732 -0.020692158 0.02551399 0.031185078 0.02963623 0.025299957 0.04061568 0.003277271 0.030888561 -0.024976134 -0.044617724 0.03188959 -0.02549407 0.035610575
놓 0.022078155 0.035036713 -0.08501701 -0.030946858 0.012982314 0.058162898 0.04962368 0.11301836 0.05162181 -0.008725595 0.049644038 0.06981504 -0.021140426 0.03374216 -0.019785922 0.089629754
봐야 0.08178322 0.061310906 -0.07002574 -0.025992151 -0.034055553 -0.0047873366 0.024994347 0.033671774 0.004782663 -0.090349734 0.05772135 0.032054707 -0.061901134 -0.0028195854 0.014598395 0.06560007
보이 0.0934706 0.038155656 -0.0701426 -0.006795958 -0.022657432 0.051748816 0.03323469 -0.02082411 0.05888143 -0.05952634 0.07928028 0.06321654 -0.06280436 0.0035374272 -0.0063510225 0.051890187
웃기 0.05213359 0.098749645 -0.027945582 -0.042736117 -0.055849712 0.034681898 0.043083943 0.043386817 0.05246838 -0.10914686 0.1448437 0.048311364 -0.10098916 -0.013166196 -0.05978286 0.05571316
막장 -0.05220417 -0.04388315 0.00027458617 -0.021826746 0.017287042 0.0066814125 -0.01822818 0.016289283 -0.009167789 -0.0047438624 -0.06053375 -0.013985047 0.008482108 0.06503821 0.007683053 -0.04114672
물 0.11235354 0.13670464 -0.07260006 -0.086528294 -0.04797165 0.07154914 0.09228304 0.049184076 0.059568726 -0.05442283 0.08253362 0.018009486 -0.06989177 -0.12904193 -0.07780999 0.121501416
삶 0.015200896 0.06095035 -0.012755582 -0.047882948 -0.106263734 0.036034055 0.019357568 -0.05671615 0.024766607 -0.02281137 0.069996245 -0.03678148 0.04481929 -0.0538677 0.017225264 0.03191657
이제 0.023769805 0.0024731222 -0.008949557 -0.050457846 0.025230337 0.088559635 0.020070124 0.0007233594 0.0065495307 -0.056463752 -0.02016267 0.04816708 -0.04156043 -0.010886205 -0.098315775 0.031040294
친구 0.064174056 0.09956568 -0.06466064 -0.04645394 -0.071990505 0.05474796 0.04854571 0.06832147 0.083216205 -0.037041847 0.06288457 0.13041091 -0.09947244 -0.046545755 -0.013159405 0.09194818
잔잔 0.010277231 0.07269136 -0.049879722 -0.0027816482 0.0024245724 0.010400654 0.045102656 0.014844133 0.017208735 -0.018836973 0.04527209 0.016865203 0.024544418 -0.10260781 -0.018915053 0.04891331
조금 0.009049914 0.011000964 -0.062330123 -0.11862166 -0.09143906 0.015171051 0.15725371 0.070567705 0.073359124 -0.1347108 0.058974825 0.02308775 0.017832909 -0.15794344 -0.13318165 0.021271449
억지 0.06884173 0.03270009 -0.1005961 -0.029617526 -0.051622532 0.027448753 -0.013921599 0.09870768 0.08725249 -0.0016088601 0.06847553 0.022417694 -0.06841066 -0.0037241841 -0.114286266 0.022477243
가지 -0.020052288 -0.10846336 0.02886081 0.039422017 0.105282985 -0.06321916 -0.10671167 -0.0820838 -0.021564562 0.02020504 -0.06492909 -0.041359466 0.018702818 0.052490976 0.05353306 -0.052725658
영상 -0.042207774 -0.03909108 -0.018055804 0.04118903 0.033526916 0.012284682 -0.01747099 0.016067626 -0.010364061 -0.0029211566 0.038753707 0.01324813 -0.080560654 0.008301463 0.04317073 0.015980382
5 0.008554433 0.002101388 -0.019944731 -0.069972225 -0.07876564 -0.0048354263 0.097329795 0.05562191 -0.029494131 -0.06918087 0.047990523 0.012113359 -0.078749806 -0.0776915 -0.056415915 0.04203968
요즘 8.296073e-05 0.035677884 0.029706541 0.04506051 0.0118011655 -0.006543884 -0.040018324 -0.0649538 -0.029081427 0.028231949 0.04647258 -0.075243875 -0.0036405474 0.069150135 0.1431558 0.02360649
찾 -0.04959072 0.051226553 -0.050102025 0.02656624 0.037777234 -0.006996955 -0.065229185 -0.030461233 -0.048438217 -0.00028620567 -0.0069781123 0.011667874 -0.057418052 0.120489664 0.0146860285 0.009832031
씬 0.052715115 0.013738815 -0.02835963 -0.025835745 -0.057638578 0.039967414 0.0048454786 -0.02788514 0.03428185 0.015474741 0.017079985 -0.0012898885 0.07607957 -0.09848565 0.033590518 0.039289042
딱 0.013681776 -0.0041460707 -0.042576652 -0.019656839 0.05798134 -0.03443651 -0.013913197 0.056312338 0.010884788 -0.011521045 -0.04911938 0.019224046 -0.033305198 0.02685492 -0.056832872 -0.017411284
같이 -0.009486364 -0.034710582 -0.002702866 -0.03779824 -0.0040697954 0.00036146384 0.013243606 -0.0240801 0.01640234 -0.021511134 -0.08292898 0.039616264 -0.032158542 0.017489925 0.016780576 0.01358151
라도 0.042153582 0.03772069 0.030352237 0.025546681 0.030380433 0.047294978 0.01816012 0.004149873 0.027107064 0.025108652 0.05774846 -0.0019291214 -0.056569953 -0.0025015748 0.0067246547 0.048683066
스릴러 0.002494082 0.02928547 0.028187532 -0.0014132727 -0.028550098 0.047769297 -0.030500876 -0.005292935 -0.030124772 -0.042083904 0.044715494 0.013433962 0.0081868805 0.028926147 0.020995611 -0.005429608
싫 -0.064744964 0.025261512 0.069451526 0.04150764 -0.042162362 -0.046669878 0.03429525 -0.04524298 -0.032788217 0.06401736 0.018888196 -0.023339206 0.033715244 -0.039789382 -0.017341629 -0.041656353
믿 -0.039625864 0.041996844 0.04334992 -0.01055023 -0.043381095 0.0038054949 0.02204285 -0.024378976 0.0056685274 -0.01645723 0.0067668967 -0.074606426 0.024109788 -0.017543944 -0.07256114 -0.015308234
아까운 0.023815703 0.023170501 -0.12677678 -0.055635422 0.016473217 0.05379058 -0.017991528 0.09386996 0.053077403 0.010591459 0.07296378 0.06321262 0.02300631 -0.022847317 0.04642924 0.033999365
나왔 0.020931002 -0.10531234 -0.043759037 -0.08143433 -0.0064368392 -0.04654636 0.05174206 0.12127745 0.055012997 -0.098086014 -0.048601434 0.08519596 0.047467787 -0.00712046 -0.083757214 -0.032229967
중간 -0.004333859 0.03975885 0.027839579 -0.00027126537 -0.039013065 0.013007063 0.010203297 0.025398038 -0.014279598 -0.01163581 0.051424127 -0.0037006463 -0.014578415 -0.02716897 -0.029528549 0.039079044
긴장감 0.029251702 0.052997854 -0.058557145 -0.016805857 0.015818126 -0.0066700876 -0.017860023 0.0043153097 0.038273495 -0.04255832 0.06172184 0.0036425395 -0.06556669 0.01623951 -0.039700862 -0.013693298
제대로 -0.052125596 -0.07750512 0.04974154 0.03685712 0.053224344 0.014197595 -0.05897089 -0.043625254 -0.0935282 0.016737647 -0.03006498 -0.08548875 0.013033963 0.075613484 0.072506234 -0.08779855
점수 0.061051782 0.08353404 -0.16636461 -0.114139974 -0.06380145 0.1293181 0.05829436 0.14596523 0.062470343 -0.14576668 0.06894281 0.08084135 -0.18539734 -0.06961621 -0.1319277 0.10199377
개인 -0.15316209 -0.15749283 0.010360404 0.050576974 0.10637323 -0.028889865 -0.17018765 -0.05096385 -0.12305444 0.09927306 -0.1489093 -0.077475354 0.034154434 0.106482424 0.017717645 -0.12434472
부족 -0.013691911 -0.032527108 0.004330817 -0.034573663 0.00060501846 0.062118564 0.017155755 0.043390334 -0.030550022 0.01715722 -0.029739458 -0.0028695983 -0.03282454 0.012740097 -0.014209028 0.006383599
이유 -0.044887513 -0.048385892 -0.011617502 0.061478477 0.041733243 -0.01684864 -0.08593313 -0.010369549 -0.021311581 0.040655203 -0.059511878 -0.021757636 0.07780213 0.1169778 0.11016689 -0.018957043
노래 -0.042512305 0.096585184 0.012077682 0.079312004 0.047395196 0.055310965 -0.043898568 -0.062208235 -0.07598715 0.014944551 0.05588558 0.027094666 -0.0823971 0.07582481 0.04424202 -0.03992546
만큼 -0.033421304 -0.081122145 -0.013273801 -0.022786839 0.0013291126 -0.0653774 0.048410237 -0.016710304 -0.023486964 0.041258566 -0.055301387 -0.03461172 -0.0062014833 0.036243353 0.052619904 -0.0053539975
어떻게 -0.023169035 -0.011439778 0.01393143 -0.044896886 -0.05804572 0.043332037 0.058046646 0.056896545 0.0066161617 -0.061411787 0.008163151 0.08316475 -0.045509513 -0.051584702 -0.056336377 -0.047675077
시작 0.01269422 0.0039414656 0.028378863 0.03128405 -0.002919076 0.020356374 0.049887776 0.040301107 0.045363653 -0.007814591 0.008882528 -0.01988529 0.01708331 -0.045839753 -0.04897716 -0.042796634
라면 0.11403665 0.14662056 -0.12860933 -0.14579792 -0.08083195 0.17171383 0.10943506 0.17336164 0.18599431 -0.13910815 0.13262661 0.15169197 -0.096961126 -0.006391139 -0.11055205 0.15976296
잇 -0.004388617 -0.026938645 0.01503777 -0.021096952 0.0009368231 0.0013058358 0.0392608 -0.0045180754 -0.057490036 -0.015509604 0.026768137 -0.015253536 0.013657775 0.09662824 0.016922938 0.02959212
구나 -0.10557142 0.010468549 0.066982135 0.09313839 0.10426065 -0.0042637675 -0.079632536 -0.091225274 -0.111679964 0.11354056 -0.06675066 -0.07355219 0.017534282 0.11625073 0.10845726 -0.06109711
0 -0.0150453355 -0.028340943 -0.01971582 -0.024138544 -0.025303004 -0.0029008863 0.014246 0.06977215 0.016412927 -0.022030795 0.01825277 -0.035891633 -0.015599301 0.048867386 0.01035197 0.018787615
한테 0.004439136 0.11440516 -0.04110492 8.182065e-05 -0.01008781 0.014921629 0.05948394 0.045772225 0.06194893 -0.07376668 0.017768197 -0.0149471145 -0.021432051 7.0581955e-05 0.027116822 0.015178775
특히 0.023882758 0.02996726 -0.015204177 0.026042696 0.040964797 -0.030831149 0.004006221 -0.031256836 -0.051693883 -0.0049922206 -0.0042140423 -0.023309877 0.0018289714 0.03264982 -0.015723856 0.022122877
려고 -0.009394238 0.05308739 0.09786052 0.0035945687 0.018065443 -0.015533496 0.029219324 -0.1350783 -0.05028215 0.023950879 0.04643338 -0.069309875 0.04290491 -0.035281524 0.053977873 0.026464557
날 0.0496609 -0.01260838 -0.0076728547 -0.010208471 -0.003560603 0.012965056 0.04421277 0.015853219 0.007185381 -0.036901303 -0.019115852 -0.0010084562 -0.015974747 -0.023130149 -0.038717 -0.045219112
제일 0.015586573 -0.07089807 0.03958365 -0.034094602 -0.00011595529 0.016575769 0.009120004 -0.01569548 0.008205464 0.044752833 -0.052719217 0.008735603 0.037075385 -0.082350284 0.022177583 -0.031053185
아름다운 -0.036770687 0.007454569 0.054410383 0.07599423 -0.07210975 -0.056230262 0.009709126 0.034752954 -0.017664384 -0.0013216812 -0.009286483 0.025547095 -0.017430544 -0.044767447 -0.007687579 -0.0069680954
니까 -0.122736156 -0.02040286 0.014816938 0.071400285 0.049682204 -0.0459336 -0.121433586 -0.009144271 -0.053107165 0.07275821 -0.12985547 -0.018808316 0.020598754 0.13147236 0.027670529 -0.06502001
시대 -0.08922775 0.043398574 0.0778863 0.02704414 0.060976002 -0.041967932 0.0021199735 -0.060146194 -0.020070476 0.054370917 -0.036729444 -0.056553144 -0.04053223 0.024665095 0.004532502 -0.067108855
엔딩 0.06594298 0.07295418 -0.113210194 -0.062326003 -0.036581255 0.091440916 0.011558375 0.21746771 0.13854104 -0.080438636 0.13893476 0.2109281 -0.17290017 0.0020840378 -0.09475632 0.06674599
나름 0.047265958 0.015313918 -0.016671482 -0.05508799 -0.04580103 0.01934712 0.054111533 0.030611897 0.01584431 -0.035194647 0.055022985 0.017667362 0.0037372785 -0.06253429 -0.06160228 0.012618194
당시 0.036646336 0.034488477 0.055488493 0.014111278 -0.02799504 -0.0051837885 0.019261435 0.015017912 0.025458451 0.018916355 0.018359039 -0.022439755 -0.017669514 0.013032191 0.024535606 -0.019223964
명 0.08471602 0.06645756 -0.024913516 -0.06066613 -0.08371498 0.094164945 0.09285526 0.07201909 0.040554184 -0.080449805 0.08236042 0.10066177 0.015322352 -0.14359508 0.051464953 0.135484
무섭 -0.062660515 -0.1836935 0.019108841 -0.021788439 0.023539472 -0.09152843 0.05365733 0.01805298 -0.04042019 0.029689224 -0.15216124 -0.06655487 0.15675716 0.017873412 -0.0722743 -0.040404044
나온 -0.04067308 0.04516863 -0.015148001 -0.03458009 -0.017111069 -0.026685739 -0.020217929 0.018302785 0.06678036 -0.0118931355 7.690146e-05 0.017489156 -0.0076432065 0.057503164 -0.059238628 -0.009356306
해요 0.064219475 -0.07415048 0.02812042 -0.058868907 0.009150397 -0.03901881 0.040805966 0.02667621 0.054846685 -0.007200453 -0.031175606 -0.062275726 0.021273527 -0.0009291088 -0.0023723978 -0.05062526
오랜만 -0.089250326 -0.12375181 0.033953242 -0.03815067 0.07276025 -0.023692327 0.012705874 0.043115146 -0.027071042 -0.05128173 -0.050349724 -0.061502185 0.014176361 0.023502618 -0.0013352839 -0.06453334
이것 0.06444558 0.11423633 -0.039934497 -0.051094167 -0.08448675 0.0788013 -0.038073972 0.0025176369 0.05301528 -0.03305183 0.107930124 0.12610076 -0.0122733265 -0.026564997 0.0147514 0.08849207
팬 0.039396964 0.06328273 0.005868515 0.011565571 -0.027684208 -0.040784623 0.0047332733 0.047762766 0.03775232 0.05608711 0.030962447 0.023113437 0.0074165016 -0.058395896 -0.011528578 0.068360224
봐 -0.042613097 -0.017253162 -0.0022534207 0.01507461 0.019623103 0.056496512 -0.0013507477 -0.031927813 -0.017363 -0.021094749 -0.063366935 -0.022270937 -0.021352168 0.04714601 -0.01876682 -0.016774246
사 -0.09035634 -0.12021143 0.036365435 0.007880519 0.020746231 -0.048921254 -0.04153668 -0.003787623 -0.027376669 -0.0020983226 -0.04498225 -0.008366625 0.017189614 0.073912114 -0.027967315 -0.050803643
7 0.059754714 0.028765766 0.03415867 0.039700195 0.021609364 0.002645017 -0.004581489 0.014219945 -0.029295199 -0.011151277 0.0017040682 0.01786988 -0.015262198 0.041224647 0.023901863 -0.0235183
차라리 0.002353482 0.023094919 0.046834633 -0.02404985 0.017019788 -0.04266624 0.016370239 -0.024886446 -0.014568502 0.022132177 0.05313172 -0.016134877 -0.0066733803 -0.047632094 -0.032772783 0.03949949
절대 0.055625826 -0.042654146 -0.042349666 -0.0071678683 -0.026115205 0.008212879 -0.021038976 0.04150508 0.054110907 -0.08042305 -0.017622216 0.0505549 -0.015586146 -0.054222725 -0.02608968 0.039851993
세상 -0.032762766 -0.024334094 0.012744709 0.03556742 0.018970992 -0.063536786 0.0037828384 -0.05473356 0.020284167 0.0114225345 -0.042818543 -0.017903563 0.044301897 0.022394782 0.028978234 -0.027307156
못하 0.032707773 0.05494642 0.05873949 0.09952371 -0.009732629 -0.040754013 -0.044864565 -0.18983293 -0.049009178 0.05004155 -0.008176938 -0.1388077 0.04638513 0.017059736 0.13636646 -0.05036769
세 -0.02038443 0.0057739336 -0.014293496 -0.0425472 0.0067041186 0.036928836 0.032070007 0.039304268 0.020844217 -0.010337713 0.0537612 0.012935342 -0.05222556 0.023886347 -0.046713006 -0.033985335
의미 -0.0055082827 0.027532738 0.015012061 0.021647396 0.03221681 -0.0041036494 -0.073459044 -0.012414563 0.04502543 -0.021049932 0.018625738 -0.025269903 -0.018416345 0.01560044 0.07451639 -0.021841306
봄 0.030393291 -0.034709863 -0.06201782 -0.078254454 -0.098265715 0.0050629927 0.027175473 0.027047522 0.068352625 -0.074401535 -0.014738759 0.066254646 -0.04460585 -0.041426014 -0.065167986 0.00053171796
감 -0.038134146 -0.05229388 0.030369148 -0.045795925 -0.032397952 -0.0040208288 -0.03418374 -0.008540729 0.002166055 0.03086779 -0.042678468 -0.06550374 0.05826886 -0.024517251 -0.04142398 -0.0005540347
훌륭 -0.11945699 -0.12580618 0.114244506 0.052719433 0.12753312 -0.08305199 -0.08664729 -0.0052330815 -0.13367784 0.07701997 -0.14532056 -0.11558723 0.067606896 0.13059992 0.018529946 -0.15902025
욕 0.002538988 -0.09207681 0.0018246383 -0.030599954 0.08044894 -0.053904485 -0.035146743 0.008920115 0.00796508 0.002206246 -0.013142592 0.04537107 0.016078986 0.0070923874 -0.053601947 -0.017317858
너무나 0.028316757 0.019020444 0.018240953 0.06393672 0.0060142204 -0.027405005 0.021066856 -0.07751464 -0.02572356 0.048253357 0.0072339596 -0.055418987 0.0012441338 -0.039759405 0.058215115 0.011735714
강추 0.04996436 0.066690736 -0.0400531 0.069156684 -0.030561794 0.021174408 -0.013684426 0.03642927 -0.005411221 -0.02078041 -0.0147009725 0.021538034 -0.069083564 0.062440984 0.054701783 -0.009439789
따뜻 0.05971545 0.05724641 0.06585844 0.010199859 0.036392115 0.038742624 -0.033398274 -0.046333656 -0.04484817 0.04205467 -0.048433498 0.012213438 -0.046559565 0.047721356 0.055618435 -0.023777876
됨 0.03399438 -0.0004000741 0.036418825 0.008732504 0.027475588 0.024436818 -0.030283516 -0.033891566 0.03232755 0.022272447 -0.00096654985 0.023349335 0.0017475451 0.08306375 0.016895184 -0.0029489212
해야 -0.12686867 -0.068376556 0.02914472 0.011651773 0.025334515 -0.013247381 -0.11037685 0.07868881 0.0019651188 -0.04430232 -0.051197104 0.017421694 -0.049452346 0.089066654 -0.09845504 -0.014911355
빼 -0.044340063 0.0050985455 0.03970864 -0.012738273 -0.011809514 -0.040460687 -0.047527693 -0.03872067 -0.090824805 0.009244056 -0.063273996 -0.042569593 -0.012305242 0.017303314 -0.008657952 -0.09515711
느끼 0.035016503 -0.02572352 -0.0033515245 0.03469559 -0.025139052 -0.0019961642 -0.005418629 0.0044406964 0.01935088 -0.025239186 -0.042001396 0.03321296 0.027560849 -0.025655031 -0.0024504922 -0.02787669
드 -0.007976723 -0.02967829 0.06463745 0.01990471 -0.04315175 -0.050925117 -0.009025439 -0.049579736 -0.069681376 -0.03850357 0.0138274785 -0.056496635 0.07682908 -0.029650804 0.027452314 0.019945623
던데 0.043785434 0.036522947 -0.013716328 -0.012961406 -0.014109504 -0.020797689 0.0063012727 0.0061863693 0.025868334 0.051720574 0.046877094 -0.040630788 0.05402198 -0.01478599 0.09846666 0.09326859
글 0.010639776 0.019018155 0.011271187 -0.038963743 0.02048417 0.018973434 -0.017209038 0.05953797 0.06452256 0.007131943 0.041998845 0.07728625 -0.0035219237 0.03886259 -0.0066511435 0.027940933
뻔 -0.09113463 -0.0021696244 -0.025165174 0.065563045 0.040607013 -0.05866067 -0.07924867 -0.0043959757 -0.018992761 0.023695894 -0.054768562 -0.031635985 0.0447055 0.025681898 -0.014718967 0.0032701334
도대체 -0.04510976 -0.09353399 -0.011456171 0.021337362 0.030829465 -0.06776375 -0.034647763 -0.020960681 -0.00875746 0.03913623 -0.0890131 -0.015200982 -0.023840012 0.04455909 -0.01759035 -0.005074378
마다 -0.012481928 -0.11297646 0.07147846 0.0093646115 0.024539473 -0.0064638723 -0.03822541 -0.082693346 -0.005535537 0.10094294 -0.058338113 -0.07672576 0.06774396 -0.0062432797 0.05880443 -0.057312775
어야 -0.028784778 -0.031454954 -0.023073692 -0.0015262188 -0.07298976 0.015849039 0.0817039 -0.007563784 -0.010501589 -0.022011053 -0.009165128 -0.082067624 0.0077282246 -0.056148496 -0.011437972 -0.02102788
답답 -0.025662761 0.0038314783 0.031908166 0.053417526 -0.04586327 -0.04705719 0.041111127 -0.11831106 -0.08943677 0.021402936 -0.009625813 -0.06974935 0.011785965 0.009790931 0.05677455 0.018846808
전쟁 -0.16353802 -0.17046346 0.09852698 0.059013356 0.099541776 -0.17338936 -0.115964554 0.020966792 -0.084654994 0.07944564 -0.16035429 -0.10793087 0.045281325 0.17395468 -0.016955243 -0.17151175
놈 0.045829814 -0.061981134 0.02012413 -0.025701623 -0.0038110046 -0.055229623 0.024594171 -0.015754651 0.0022887574 0.019432828 -0.029320246 -0.040098213 0.025453206 -0.0290679 -0.03504628 -0.05855205
무엇 0.21979389 0.25297722 -0.19646266 -0.24299838 -0.18961993 0.26681402 0.16019376 0.14387457 0.20442319 -0.10970785 0.27492392 0.17094181 -0.13397984 -0.17724945 -0.09671863 0.25913918
설정 0.045998007 0.016034838 -0.049148344 -0.044745162 -0.043001957 -0.023565881 0.0022434962 0.016735986 0.021193974 -0.011812545 0.061057962 -0.009098304 -0.0035316902 -0.033034828 -0.019400857 0.028971516
흥미 -0.051609892 -0.0034628732 0.040750515 0.05033618 0.029486611 -0.020393461 -0.032265358 -0.08117868 -0.054314155 0.06710368 -0.014142508 -0.030759893 0.051375806 0.0024546427 0.076189995 -0.030190865
수작 0.022045167 -0.018144231 -0.052922804 0.01299977 0.018402135 0.050695535 -0.087592945 0.0050683017 -0.023205455 -0.041892715 -0.014997394 0.045877896 -0.049468264 0.042164657 0.011786821 -0.086568885
만화 0.051513955 0.11581821 -0.065865606 -0.08035725 -0.037344746 0.10321431 -0.022658275 0.06709391 0.07713875 -0.04781173 0.07694628 0.040065404 -0.09192447 -0.05743963 -0.060044322 0.12159551
그저 -0.0050843037 -0.082192004 0.020325826 -0.04329457 -0.004581903 0.00080383057 0.028997622 -0.034686536 0.04377677 0.013367398 -0.040876534 -0.024772417 0.023483962 0.022872044 -0.004725606 0.018557038
감정 0.023296947 0.094882004 0.08583392 0.09367469 0.006379175 0.008737612 -0.07788845 -0.11980124 -0.047169287 0.011323935 0.06523971 -0.08870524 0.023704069 -0.023642542 0.1666234 0.009800148
준다 0.058905352 -0.006188719 0.09940866 0.030897118 -0.004651708 0.010623488 0.02034631 -0.08167556 0.01170316 -0.025287043 -0.040845685 -0.0689622 0.057609614 -0.03562707 0.08162874 -0.038113534
행복 0.04908854 0.17876336 -0.09445973 -0.1057994 -0.089984864 0.0991101 0.0685914 0.1870349 0.11866187 -0.16315278 0.15096717 0.17737952 -0.10568782 -0.050109908 -0.113364816 0.09522043
미국 -0.093965575 -0.1845052 0.09608352 0.056952093 0.08762879 -0.117008954 -0.061681308 -0.06545095 -0.11681006 0.02806471 -0.12126407 -0.10116093 0.06539599 0.13832067 0.017311228 -0.14294815
신선 -0.019835254 -0.12952445 0.0562391 -0.08371605 0.008120851 -0.008204688 0.011091393 -0.017417232 -0.018003888 0.0373396 -0.12234582 -0.06172889 0.08128884 -0.016253775 0.031321414 -0.038735863
앞 -0.07493097 -0.13118848 0.1114186 0.038504217 0.05345878 -0.1169088 -0.1148048 -0.121613264 -0.09073798 0.06541802 -0.069294125 -0.06417799 0.087050214 0.054101773 0.12712015 -0.10255151
허접 -0.059448443 -0.019320678 -0.013045534 -0.0031406395 -0.004260989 -0.0024680796 -0.03578581 0.04902332 -0.037842896 -0.014217438 -0.03241053 0.023770386 -0.00593977 -0.034759566 0.0041828756 -0.019892288
형 -0.04400692 -0.040915705 0.013603799 0.00339976 -0.0064525944 -0.050701093 -0.03365603 -0.07241539 -0.08929961 0.050001018 -0.0037621919 -0.046088967 0.047845505 0.055020098 0.05017589 0.042817894
시절 0.056031525 0.046672057 -0.022810346 -0.09430468 -0.04722331 -0.043067712 0.039387945 -0.027925042 0.05156544 -0.021667939 -0.00045252754 0.000508141 0.022058118 -0.08219008 -0.015609961 -0.006255073
어도 -0.088610135 -0.11552418 0.14881492 0.086999595 0.13930848 -0.05457719 -0.10462183 -0.08022055 -0.07865799 0.064686984 -0.21012278 -0.113362014 0.20515041 0.09031542 0.055519197 -0.16345787
관객 0.035871305 -0.055060945 -0.027867464 -0.11653761 -0.022094836 0.03662023 0.05877053 0.049061913 0.044161864 -0.11161985 -0.077753544 0.044611234 -0.005170858 -0.054551516 -0.18737313 0.03769153
배경 0.023771066 -0.107367985 0.025685925 0.09306809 0.04423241 -0.093909174 -0.07739463 0.022779485 -0.02800738 0.04640125 -0.020676535 0.0051317224 0.021956373 0.006423848 0.036685668 -0.056434345
사실 0.007272865 -0.03318408 -0.002793339 0.022386005 0.076700225 0.004984863 0.001499691 0.021967482 -0.032840014 0.055781245 0.00043247952 -0.03262757 -0.01688182 -0.017929334 -0.009566257 0.040130325
답 0.026891159 0.108984694 0.0074843424 0.008141439 -0.075468615 -0.052235804 0.06382637 -0.017261634 0.0013188751 -0.022231285 0.019348122 -0.045108445 0.06885679 -0.04379396 0.03916107 -0.03683823
엄청 0.050792094 0.08890132 -0.11123025 -0.083855055 -0.08741242 0.06941855 0.100846216 0.061800838 0.07654953 -0.09597099 0.042294323 0.109935395 -0.07060207 -0.08844073 -0.13865604 0.0912661
초반 -0.00900118 0.0020752146 -0.022016162 -0.066937074 -0.091887705 0.042710118 0.06672211 0.021988632 0.04517888 -0.02226099 0.010442519 0.04727266 -0.013529211 -0.027029552 -0.015731487 0.029020272
웃음 0.15063828 0.08919175 -0.052811284 -0.1096924 -0.023885287 0.08860266 0.029697465 0.14470117 0.074054934 -0.14736997 0.08735516 0.08464349 -0.08479793 -0.1296842 -0.075782426 0.060258467
자신 -0.032816894 -0.09205893 0.04877158 0.010452497 0.014551898 -0.032615576 -0.02770411 -0.037344214 0.04853296 0.0013415156 -0.039870728 0.011363234 -0.013071675 -0.090174586 -0.0069017806 -0.059879042
더라 0.07151101 0.11148345 0.020467743 0.05665227 -0.0657129 -0.021174049 -0.030097002 -0.025813164 -0.055580936 0.022527955 0.09010198 -0.05108146 0.059040226 -0.1003999 0.11269572 0.026357934
질 0.029180601 -0.029127799 -0.046818316 -0.06472341 -0.0006219851 -0.012571459 -0.0035439772 0.055627372 0.025965273 -0.01441857 0.021225901 0.04372911 -0.055535506 -0.06569859 -0.05792274 0.03479056
추억 0.004264884 0.065108344 0.0201647 -0.013450987 0.060831975 -0.03871721 -0.08880036 -0.011840625 -0.037876204 0.0481382 0.05223512 -0.0017422651 0.02203335 0.014179969 0.032897316 0.0559145
캐스팅 -0.02005636 -0.09865091 -0.03481495 -0.050725516 0.05951488 0.008086244 -0.0427359 0.009249222 0.033692285 -0.025470285 0.012422883 0.07679199 -0.031445313 0.015724324 -0.06420773 -0.025711527
라니 0.04083065 0.0043209554 0.04592715 -0.03588904 -0.12519665 0.049438506 0.05439042 0.053794373 0.1303387 -0.03255507 0.036284916 0.07724576 -0.007662883 -0.030111425 -0.082187705 0.026146093
류 -0.0040241736 0.07649605 0.062019743 0.096538186 -0.07161541 -0.004258912 -0.051389586 -0.02772169 -0.06098129 0.07864435 0.07964716 -0.037550423 0.03182146 -0.003798284 0.08178447 -0.03933072
군 -0.1987862 -0.078747064 0.16731033 0.15203118 0.15578206 -0.20786694 -0.18954444 -0.19067238 -0.19515465 0.11973376 -0.16545331 -0.19279136 0.18444689 0.21613006 0.18589306 -0.22700602
멋있 0.0057111178 0.013627294 -0.011139775 -0.033952173 -0.039305642 -0.058291677 0.07134757 0.044230398 0.0229476 -0.08468484 -0.030242523 0.041557886 -0.027172621 0.01768664 -0.057881482 -0.008189734
슬프 -0.053602967 -0.068686046 0.043453954 -0.04542858 -0.0063746916 -0.0052524563 0.012370278 -0.011699861 -0.025940815 -0.016530087 -0.11018258 0.030253576 0.0034979973 -0.05330906 -0.07181941 -0.060976177
시나리오 0.029995764 0.13909318 -0.061888207 -0.085430525 -0.0330447 0.03482276 -0.019640353 0.039039984 0.057228178 -0.061927274 0.05950425 0.14455906 -0.06011749 -0.042924188 0.005467828 0.086939506
첨 -0.05524922 -0.063884646 0.084774725 0.059711054 0.06438234 -0.07284279 -0.022267925 -0.06848172 -0.05257218 0.06898617 0.03096206 -0.095099434 0.037184026 0.08520368 0.06033706 -0.053350024
8 -0.0362008 0.074483655 0.00012490095 0.019351173 0.048156552 0.047775153 -0.057805303 -0.007097565 -0.0030278736 -0.0028825626 0.022767575 0.02463561 -0.06200049 0.014372935 -0.009509489 -0.061996393
어색 -0.06534858 -0.19897343 0.07463747 0.04170032 0.08695372 -0.044818524 -0.028805137 -0.056885846 -0.10722081 -0.011219391 -0.052662607 -0.07672542 0.12253387 0.08685016 0.026051218 -0.1315488
정신 -0.15953936 -0.09702904 0.03904346 0.10220388 0.13599224 -0.1358188 -0.14264435 -0.045831423 -0.07424925 0.034229934 -0.119050734 -0.108752266 0.10347633 0.17294858 0.061632276 -0.1096709
머 0.033664513 0.009899011 -0.069552936 -0.09242723 -0.0320694 0.11840418 0.01884454 0.04568575 -0.0068680793 -0.0037748911 0.04414087 0.045028508 -0.076227136 -0.016202392 -0.049972467 0.011983053
밖에 -0.012792342 -0.004889884 0.04242928 0.0009562985 0.006541361 -0.033937547 -0.026910165 0.028240316 0.030171191 0.024269858 -0.07565373 0.040723976 0.06914785 0.06641406 -0.002743411 -0.04645334
OOO 0.0022480153 -0.11533032 0.06451029 0.008652407 -0.020947717 -0.008175604 0.003368998 -0.007114542 -0.009679545 -0.0043239943 -0.09982626 -0.012177257 0.03512318 0.052011594 -0.03992569 -0.1102202
분위기 0.13597646 0.15685225 -0.16914208 -0.12632322 -0.09120837 0.18741907 0.23502785 0.072448276 0.16690424 -0.18952008 0.19167745 0.10560289 -0.094237104 -0.1472271 -0.11494777 0.09797442
소름 -0.0053441566 -0.043867107 0.031326663 0.0017079534 -0.009963699 -0.0058356794 -0.0053597917 -0.028092526 0.050726 -0.030939037 -0.062690295 -0.0673538 -0.0032784434 0.015139759 -0.08299825 0.0053652828
멋진 0.01981209 -0.056847204 -0.051547322 0.017615644 0.042216476 0.06229971 -0.026498444 0.081809565 -0.043901544 -0.0378694 0.06803966 0.046664596 -0.09449787 0.04096528 -0.04579631 -0.026551913
간 -0.05854506 -0.01832679 0.004366035 0.065231115 0.041804746 7.463056e-05 0.014187045 -0.058414664 -0.018656235 0.020336019 0.027300365 0.029623676 -0.007520983 -0.0381188 0.021814646 -0.060412552
오늘 0.024976086 0.07581027 -0.026036799 -0.12857091 -0.03004921 0.01952359 0.036352407 0.06262066 0.04648411 -0.10449129 0.041443042 0.0653238 -0.027481405 -0.002377928 -0.11650137 0.05887242
힘들 -0.014453248 -0.038962904 0.025501717 -0.03907082 0.028374773 -0.032250263 -0.07009563 -0.008663412 -0.06548269 0.021994125 -0.0064361487 0.007470786 -0.055141278 0.07019776 -0.01896058 -0.063825525
어이없 -0.07300958 -0.012088007 0.009007465 0.009250366 0.07420363 0.0036602365 -0.06687839 0.045563795 0.015144615 -0.03096781 -0.03699433 0.042989455 -0.051343367 0.06003517 -0.0102705965 0.011743062
집 -0.00938166 0.05163595 -0.09938641 0.026492344 0.025132377 0.049431697 0.020542258 0.09487578 0.021632135 -0.06791625 0.0134385545 0.08643225 -0.13912764 -0.0009650405 -0.029653579 0.04751252
봐서 -0.043463964 -0.060649354 0.020509565 0.06934497 0.02944303 -0.040091556 -0.034601927 -0.07616099 -0.06478898 0.004392731 -0.07514446 -0.0243794 0.009735176 0.08502483 0.00711147 -0.072126575
구성 -0.07348583 0.00066551677 0.025052335 -0.0035751762 -1.802406e-05 -0.033350397 0.0042015035 0.052736714 0.057614148 -0.0014718082 -0.049050897 -0.009645209 0.0051136604 0.0045023845 -0.080128126 0.024306627
엄마 -0.02581375 -0.03348825 -0.030003529 0.012549635 -0.044090055 -0.005281707 0.03006232 -0.06141606 0.06585622 -0.04992141 0.009493098 -0.058523208 0.04862173 -0.045114655 -0.035649974 0.050601143
잡 0.035513595 -0.022109121 0.036135484 -0.0024291289 0.0011314747 -0.030300392 0.0006110822 -0.093218334 -0.00701466 0.01744697 0.011384158 -0.07474168 0.032370236 -0.04170284 0.029375378 -0.026342906
함께 0.044588387 -0.045958526 -0.030471351 -0.0028050318 -0.003819821 0.01672119 0.0141834635 -0.056224573 -0.03270777 0.056391582 0.017008664 0.048062246 -0.03563071 0.03875443 0.023006886 0.010121031
위해 -0.036877505 -0.009242576 0.015811037 0.018145433 0.0032657257 0.040728554 -0.11525892 0.02982759 0.02760303 0.042545073 -0.02572977 0.05969978 -0.032111768 0.017094567 0.041729648 1.122884e-06
잊 0.06587695 0.11723231 -0.04399762 -0.04342714 -0.081278056 0.053828366 -0.05073772 0.04717665 0.07540875 0.024058755 0.09170275 0.07204849 -0.1239681 -0.057270378 0.0061437404 0.048156474
졸작 0.016518613 0.052815117 0.006588226 0.029331679 0.04811405 0.077828 -0.014201632 -0.03282318 -0.03210183 -0.010327792 0.0383415 0.0016474333 -0.052286103 0.063885085 0.054586 0.03594091
등 -0.057024505 -0.048526876 0.032115325 0.00950584 -0.016259827 -0.091141716 0.0041691554 -0.024434408 -0.06645401 0.07526558 -0.032217007 -0.024904916 0.05254382 0.10440642 0.07894069 -0.03410926
이딴 0.053479463 -0.00958777 0.011226185 -0.05870558 -0.023768641 0.00287404 0.04413977 0.08152219 0.04612932 -0.06578304 0.009647851 -0.022779632 -0.038928166 -0.08047552 -0.12505658 0.019554118
문제 0.0057693343 0.084579326 -0.028408566 0.0028632658 -0.02240227 0.07245177 -0.01235986 0.019380806 0.03420518 -0.062357143 0.05532573 0.034188684 -0.1080019 -0.0062464783 0.057036124 0.07057212
9 -0.07951359 -0.06883779 0.10655097 0.07586138 0.13509145 -0.0824607 -0.12567359 -0.14992109 -0.1101392 0.10869388 -0.07864916 -0.13624819 0.12064643 0.13063586 0.11313483 -0.112778656
킬링 0.109886274 0.0340556 0.0032776664 -0.042610243 -0.082780376 0.0035521146 0.029076787 0.017455887 0.042724732 -0.01034204 0.06914004 0.07632509 -0.040509176 -0.06498471 -0.0068430873 0.039465886
유쾌 0.15760495 0.13700283 -0.10703487 -0.09158129 -0.13818328 0.14423198 0.10426587 0.0780519 0.045285147 -0.095119394 0.12551925 0.05577983 -0.08610439 -0.06255526 -0.10194566 0.14160608
스러운 -0.00074727193 0.023909284 -0.05092761 -0.08995532 -0.080024816 -0.020540265 0.04470421 0.021627728 0.11936229 -0.06354276 -0.008215932 0.051610224 0.0072218003 -0.09558518 0.02515925 0.0022355027
낫 0.06626158 0.051131405 -0.10134909 -0.02535665 -0.062223803 0.05369245 -0.0025002505 0.010117254 0.011837939 -0.041722532 0.07892828 0.04888801 0.008016957 -0.043628197 -0.01856451 0.042886637
제발 -0.10121572 -0.10944492 0.08767734 0.01422811 0.054862317 -0.08246982 -0.0007597176 -0.0037375018 -0.074747704 0.017197995 -0.0017680606 -0.018605674 0.00833641 -0.010804721 -0.008916796 0.018913705
소리 0.085815996 0.1659731 -0.119143374 -0.07417985 -0.08966807 0.07369073 0.07257821 0.118407845 0.08683028 -0.10612003 0.0901218 0.19496594 -0.17906085 -0.0046049077 -0.07427769 0.13532345
결국 -0.14393958 -0.0803448 0.060640294 0.12827265 0.14548427 -0.022320166 -0.18220837 -0.103661306 -0.046624657 0.06605186 -0.056514494 -0.12238319 0.03717159 0.17950727 0.13605346 -0.02932431
뭘 0.016999263 0.05300644 -0.046096485 -0.0014124518 -0.0389856 0.017946167 0.12210525 -0.015877645 0.04955316 -0.04760862 0.030085742 0.012838893 -0.037343226 -0.03825803 -0.0142931165 -0.02173106
뭔 -0.0043300022 -0.027681708 0.039573774 -0.019821707 -0.023103401 -0.032597963 0.033897042 -0.08956908 -0.019349938 0.006722004 -0.023284538 -0.026736632 0.04076423 -0.012835288 -0.0018306052 -0.021567423
역사 -0.11155211 -0.13388981 0.09779783 0.033375245 0.105274886 -0.09038418 -0.10979068 -0.08407187 -0.08839458 0.09138991 -0.14105617 -0.070522584 0.029441971 0.04213145 0.017445339 -0.037944674
한데 -0.0665431 -0.18140006 0.055134803 0.054841414 0.079762034 -0.12114689 -0.111621514 -0.076066405 -0.0945415 0.0441053 -0.03309505 -0.09089383 0.09528062 0.044732183 0.119150825 -0.08685174
포스터 0.05112425 0.08238295 -0.03623308 -0.009870125 -0.03457008 0.11399158 -0.007412801 0.04151966 0.01728401 0.02319574 0.11174787 0.08197354 -0.09578417 -0.011639229 0.07195677 0.08686364
아무리 -0.02336651 0.012046126 0.0026736294 0.03092316 0.036635004 0.013721153 -0.014724025 -0.028849179 -0.013949453 -0.0058185626 0.039080285 -0.037540615 -0.042568855 0.026927182 0.020752184 0.000778883
코믹 0.13596001 0.05706919 -0.14478998 -0.13976978 -0.13502704 0.067004055 0.116625816 0.20351245 0.13245521 -0.19190925 0.09568957 0.18158942 -0.10262381 -0.15880834 -0.24731213 0.11103923
얼마나 -0.0345363 0.017221112 0.049631625 -0.009716694 0.0076147104 -0.010503292 -0.047666565 0.03403295 0.0073328116 0.021513166 -0.019413566 0.03506235 -0.047878638 0.092167884 0.009078715 -0.009699779
어떤 -0.0074558486 0.0289259 0.017242847 -0.0013095937 -0.00041831285 0.015792273 0.050255325 0.00015175893 -0.006679775 0.008281911 0.026395591 -0.0013841721 -0.0182618 0.01767053 0.037027642 0.026230473
러 0.013566539 -0.022802016 -0.049290743 -0.0046891384 0.012014552 0.017929992 0.013315449 -0.019083066 -0.022967068 -0.01166287 -0.064032264 -0.03898292 0.07542479 0.0231484 0.013076302 -0.029528145
완벽 -0.04476827 -0.04525853 0.0064261816 0.098527886 -0.032961633 -0.04351039 -0.06773486 -0.017793043 -0.026612744 0.08462438 -0.048652057 -0.067901894 0.07118899 0.042437203 0.017760608 -0.026184348
20 -0.06004125 -0.10207811 0.05704699 0.018859988 0.025926253 -0.06306186 -0.020380193 -0.040953342 -0.035412755 0.00066769146 -0.03204831 -0.0077719195 0.033423 -0.027210593 0.0023043612 -0.06890975
맘 -0.022935234 0.0021411644 -0.11689713 -0.10334792 -0.08590895 0.008202338 -0.0006185687 0.063859485 0.08685715 -0.067930125 -0.0064080036 0.117251754 -0.030282782 0.018558275 -0.12955503 0.030134115
애니메이션 0.027034236 0.0030458174 -0.06895631 -0.029997531 -0.019256 0.027959904 0.008500713 0.1298136 0.055101085 -0.11031395 -0.046774678 0.0012327518 0.049556177 -0.021262191 -0.049120452 -0.019261926
주연 0.18234351 0.13138387 -0.21714073 -0.22273044 -0.1365431 0.2669301 0.16495907 0.18753035 0.23475754 -0.14750738 0.12990144 0.22824334 -0.18210424 -0.17312618 -0.19100825 0.17935164
후회 -0.05651423 0.06256882 0.089681186 0.1732378 0.12724972 -0.05280999 -0.19129387 -0.09387372 -0.1423561 0.18308392 -0.0006139187 -0.122867584 0.045640606 0.14892581 0.1548662 -0.047637947
ㅅ 0.17026366 0.11919422 -0.10318748 -0.23556122 -0.16843954 0.15369938 0.2024652 0.18825756 0.19275685 -0.23745021 0.22470282 0.19286628 -0.06499636 -0.114295155 -0.2562041 0.19306934
버리 -0.04979602 -0.14084393 0.05137841 0.027514098 0.016596623 -0.12356822 -0.03206005 -0.0072066695 -0.080457635 0.00081593957 -0.04664633 -0.050915428 0.01599514 0.0046350244 0.0056891385 -0.14338534
원 0.00587462 -0.03420851 0.021060232 -0.04491958 -0.021183293 -0.02209998 0.05491555 -0.0037686194 -0.018501224 0.008479013 0.029907964 0.06920479 0.06836816 0.00021050616 -0.0018789785 0.020053744
뻔한 -0.1281788 -0.17144488 0.048568543 0.066860065 0.16078618 -0.08761528 -0.08328048 -0.050803624 -0.110826336 0.06891723 -0.14109427 -0.06902142 0.11643109 0.12449621 0.07148858 -0.20756285
